%YAML:1.0
---
opencv_ml_svm:
   format: 3
   svmType: C_SVC
   kernel:
      type: INTER
      gamma: 1.
   C: 1.
   term_criteria: { epsilon:1.1920928955078125e-07, iterations:1000 }
   var_count: 64
   class_count: 10
   class_labels: !!opencv-matrix
      rows: 10
      cols: 1
      dt: i
      data: [ 0, 1, 2, 3, 4, 5, 6, 7, 8, 9 ]
   sv_total: 122
   support_vectors:
      - [ 3.65276172e+03, 9.85390332e+03, 1.14039465e+03, 3.22552319e+03,
          0., 0., 3.00203809e+03, 1.61276160e+03, 2550., 2.22226807e+03,
          1.14039465e+03, 1.61276160e+03, 0., 0., 0., 0., 8.70466602e+03,
          1.91621211e+04, 0., 8.06380798e+02, 2550., 0., 1.44249780e+03,
          0., 7.00914258e+03, 9.07413281e+03, 1.14039465e+03,
          1.61276160e+03, 1.06619043e+04, 3.42118408e+03, 4.38601465e+03,
          3.22552319e+03, 2040., 3.60624451e+02, 0., 8.06380798e+02,
          8.53914258e+03, 3.42118408e+03, 9.55179980e+03, 2.41914233e+03,
          2040., 3.60624451e+02, 1.14039465e+03, 0., 2.63276172e+03,
          3.42118408e+03, 5.94555518e+03, 2.41914233e+03, 1.51210469e+04,
          2.46885312e+04, 1.14039465e+03, 8.06380798e+02, 1.02346660e+04,
          6.84236816e+03, 2.52437109e+03, 1.61276160e+03, 1.69474277e+04,
          3.91720312e+04, 1.14039465e+03, 8.06380798e+02, 1.26191426e+04,
          3.42118408e+03, 1.08187329e+03, 0. ]
      - [ 3.43914233e+03, 9.19117578e+03, 2.28078931e+03, 2.41914233e+03,
          0., 0., 0., 0., 0., 5.46788818e+03, 1.14039465e+03,
          8.06380798e+02, 2040., 0., 0., 8.06380798e+02, 3.73552319e+03,
          1.15985039e+04, 0., 0., 0., 0., 1.08187329e+03, 0.,
          1.61276160e+03, 1.80312231e+03, 0., 0., 1.00691426e+04, 0.,
          7.21248901e+02, 1.61276160e+03, 0., 7.21248901e+02,
          2.28078931e+03, 1.61276160e+03, 8.53914258e+03, 3.42118408e+03,
          1.26803779e+04, 8.06380798e+02, 4080., 7.21248901e+02,
          2.28078931e+03, 1.61276160e+03, 2.41914233e+03, 3.42118408e+03,
          8.29436230e+03, 0., 1.75882852e+04, 2.05460977e+04,
          1.14039465e+03, 8.06380798e+02, 2.45627617e+04, 0.,
          1.44249780e+03, 1.61276160e+03, 2.08965703e+04, 3.27393105e+04,
          0., 8.06380798e+02, 2.40527617e+04, 2.28078931e+03,
          2.22226807e+03, 8.06380798e+02 ]
      - [ 5.69276172e+03, 3.66476587e+03, 2.28078931e+03, 2.41914233e+03,
          4080., 0., 0., 0., 0., 4.68811816e+03, 1.14039465e+03,
          8.06380798e+02, 0., 0., 0., 0., 1.29982852e+04, 1.62186035e+04,
          1.14039465e+03, 8.06380798e+02, 2.84638086e+03, 0.,
          1.44249780e+03, 8.06380798e+02, 4.88638086e+03, 1.01560059e+04,
          1.14039465e+03, 8.06380798e+02, 1.18127617e+04, 0.,
          2.88499561e+03, 1.61276160e+03, 0., 0., 0., 0., 1.87391426e+04,
          3.42118408e+03, 9.79538184e+03, 8.06380798e+02, 0.,
          7.21248901e+02, 2.28078931e+03, 1.61276160e+03, 1.05791426e+04,
          3.42118408e+03, 4.02539038e+03, 8.06380798e+02, 8.53914258e+03,
          1.27388984e+04, 9.12315723e+03, 7.25742725e+03, 2.32463809e+04,
          0., 4.44453613e+03, 2.41914233e+03, 1.05310469e+04,
          2.05460977e+04, 1.02635518e+04, 8.87018848e+03, 26520., 0., 0.,
          0. ]
      - [ 2.84638086e+03, 2.16374683e+03, 2.28078931e+03, 2.41914233e+03,
          4080., 0., 0., 0., 0., 0., 0., 0., 8.96638086e+03, 0.,
          1.44249780e+03, 8.06380798e+02, 6.92638086e+03, 9.43475781e+03,
          2.28078931e+03, 1.61276160e+03, 0., 0., 3.60624451e+02,
          8.06380798e+02, 8.06380798e+02, 3.60624451e+02, 0., 0.,
          8.96638086e+03, 0., 1.44249780e+03, 8.06380798e+02, 0., 0., 0.,
          0., 1.21919043e+04, 5.70197314e+03, 9.01561133e+03, 0., 0., 0.,
          0., 0., 1.30463809e+04, 1.14039465e+03, 1.80312231e+03, 0.,
          1.05791426e+04, 2.10917832e+04, 2.28078931e+03, 1.61276160e+03,
          2.36255234e+04, 2.28078931e+03, 7.74867773e+03, 3.22552319e+03,
          1.29982852e+04, 2.98638125e+04, 3.42118408e+03, 4.03190405e+03,
          2.40527617e+04, 2.28078931e+03, 5.10726367e+03, 8.06380798e+02 ]
      - [ 0., 1.08187329e+03, 4.56157861e+03, 2.41914233e+03, 11220., 0.,
          0., 0., 0., 0., 0., 0., 0., 0., 0., 0., 3.73552319e+03,
          2.61990469e+04, 0., 8.06380798e+02, 2550., 0., 3.60624451e+02,
          0., 510., 1.08187329e+03, 2.28078931e+03, 1.61276160e+03,
          1.50863809e+04, 1.14039465e+03, 3.60624451e+02, 0., 0., 0., 0.,
          0., 1.13855234e+04, 4.56157861e+03, 1.44249780e+03, 0., 0., 0.,
          0., 0., 0., 0., 0., 0., 1.09582852e+04, 1.62186035e+04, 0., 0.,
          2.62582852e+04, 2.28078931e+03, 9.61032129e+03, 5.64466553e+03,
          1.74574277e+04, 3.65891367e+04, 1.14039465e+03, 8.06380798e+02,
          2.41914233e+03, 3.42118408e+03, 5.52640918e+03, 1.61276160e+03 ]
      - [ 4.45914258e+03, 7.69015625e+03, 1.14039465e+03, 1.61276160e+03,
          2040., 0., 0., 0., 8.06380798e+02, 1.44249780e+03, 0.,
          8.06380798e+02, 0., 0., 0., 0., 2.07791426e+04, 1.46005420e+04,
          0., 0., 0., 0., 2.94351709e+03, 8.06380798e+02, 6.49914258e+03,
          4.44453613e+03, 0., 8.06380798e+02, 1.38527617e+04, 0.,
          2.88499561e+03, 1.61276160e+03, 0., 3.60624451e+02,
          1.14039465e+03, 8.06380798e+02, 1.05791426e+04, 2.28078931e+03,
          8.05078076e+03, 2.41914233e+03, 2040., 7.21248901e+02,
          2.28078931e+03, 1.61276160e+03, 2.41914233e+03, 3.42118408e+03,
          2.52437109e+03, 0., 6.92638086e+03, 1.23197529e+04,
          2.28078931e+03, 1.61276160e+03, 1.99727617e+04, 1.14039465e+03,
          1.80312231e+03, 8.06380798e+02, 2.03519043e+04, 2.22906992e+04,
          5.70197314e+03, 4.03190405e+03, 1.58927617e+04, 2.28078931e+03,
          2.22226807e+03, 8.06380798e+02 ]
      - [ 3.65276172e+03, 1.16570254e+04, 4.56157861e+03, 3.22552319e+03,
          0., 0., 0., 0., 2.84638086e+03, 6.18913721e+03, 1.14039465e+03,
          8.06380798e+02, 0., 0., 0., 0., 7.81552344e+03, 1.73684961e+04,
          1.14039465e+03, 2.41914233e+03, 0., 0., 3.60624451e+02, 0.,
          4.96914258e+03, 4.80516064e+03, 0., 8.06380798e+02,
          1.79327617e+04, 1.14039465e+03, 3.24562012e+03, 8.06380798e+02,
          0., 3.60624451e+02, 1.14039465e+03, 8.06380798e+02,
          1.42319043e+04, 5.70197314e+03, 1.34016260e+04, 8.06380798e+02,
          2040., 0., 0., 0., 1.26191426e+04, 3.42118408e+03,
          6.91038623e+03, 8.06380798e+02, 1.17646660e+04, 2.81192109e+04,
          1.14039465e+03, 1.61276160e+03, 2.74919043e+04, 2.28078931e+03,
          5.16578516e+03, 3.22552319e+03, 1.25710469e+04, 4.62089570e+04,
          0., 8.06380798e+02, 2.81327617e+04, 2.28078931e+03,
          3.72328711e+03, 1.61276160e+03 ]
      - [ 8.06380798e+02, 2.16374683e+03, 2.28078931e+03, 2.41914233e+03,
          8160., 0., 0., 0., 0., 3.60624451e+02, 0., 8.06380798e+02,
          3060., 0., 1.50101904e+03, 8.06380798e+02, 2040.,
          1.37037295e+04, 2.28078931e+03, 1.61276160e+03, 0., 0.,
          3.60624451e+02, 8.06380798e+02, 8.06380798e+02, 7.21248901e+02,
          2.28078931e+03, 8.06380798e+02, 1.24055234e+04, 4.56157861e+03,
          4.32749365e+03, 0., 0., 3.60624451e+02, 0., 8.06380798e+02,
          9.13190430e+03, 4.56157861e+03, 2.88499561e+03, 8.06380798e+02,
          0., 0., 0., 0., 1.82638086e+03, 0., 3.60624451e+02, 0.,
          1.68646660e+04, 1.90450781e+04, 0., 0., 2.15855234e+04,
          2.28078931e+03, 1.21346924e+04, 4.03190405e+03, 1.50382852e+04,
          2.52342148e+04, 2.28078931e+03, 2.41914233e+03, 2.64719043e+04,
          5.70197314e+03, 9.07413281e+03, 2.41914233e+03 ]
      - [ 1.61276160e+03, 5.82851270e+03, 2.28078931e+03, 2.41914233e+03,
          510., 0., 0., 0., 8.06380798e+02, 4.38601465e+03,
          1.14039465e+03, 0., 0., 0., 0., 0., 9.34552344e+03,
          2.22321777e+04, 1.14039465e+03, 8.06380798e+02, 8.32552344e+03,
          0., 2.88499561e+03, 2.41914233e+03, 1.82638086e+03,
          8.29436230e+03, 0., 8.06380798e+02, 2.20127617e+04,
          1.14039465e+03, 4.74663916e+03, 1.61276160e+03, 0.,
          3.60624451e+02, 2.28078931e+03, 1.61276160e+03, 1.39355234e+04,
          4.56157861e+03, 7.63163477e+03, 8.06380798e+02, 2040.,
          3.60624451e+02, 2.28078931e+03, 8.06380798e+02, 5.98914258e+03,
          3.42118408e+03, 5.52640918e+03, 1.61276160e+03, 1.21919043e+04,
          2.87234180e+04, 4.56157861e+03, 4.03190405e+03, 2.12063809e+04,
          0., 6.30617969e+03, 3.22552319e+03, 2.18819043e+04,
          3.09456855e+04, 1.02635518e+04, 7.25742725e+03, 2.40527617e+04,
          2.28078931e+03, 2.22226807e+03, 8.06380798e+02 ]
      - [ 510., 4.32749365e+03, 3.42118408e+03, 1.61276160e+03,
          3.86638086e+03, 0., 0., 0., 0., 7.21248901e+02, 3.42118408e+03,
          2.41914233e+03, 5.18276172e+03, 0., 3.60624451e+02,
          8.06380798e+02, 0., 1.83918477e+04, 2.28078931e+03,
          8.06380798e+02, 1.33427617e+04, 0., 3.60624451e+02,
          8.06380798e+02, 510., 1.37037295e+04, 2.28078931e+03,
          1.61276160e+03, 16320., 0., 0., 0., 2040., 1.44249780e+03,
          2.28078931e+03, 8.06380798e+02, 8.91828516e+03, 7.98276270e+03,
          8.10930176e+03, 2.41914233e+03, 2040., 0., 0., 8.06380798e+02,
          6.71276172e+03, 3.42118408e+03, 6.54976172e+03, 8.06380798e+02,
          1.10891426e+04, 2.65011504e+04, 3.42118408e+03, 2.41914233e+03,
          1.56791426e+04, 2.28078931e+03, 1.08187329e+03, 1.61276160e+03,
          1.48727617e+04, 2.81872305e+04, 4.56157861e+03, 3.22552319e+03,
          25500., 0., 3.60624451e+02, 0. ]
      - [ 1.61276160e+03, 5.52640918e+03, 3.42118408e+03, 2.41914233e+03,
          0., 0., 0., 0., 0., 3.60624451e+02, 0., 0., 0., 0., 0., 0.,
          2.52382852e+04, 1.62186035e+04, 0., 0., 8.06380798e+02,
          1.14039465e+03, 1.80312231e+03, 0., 1.01519043e+04,
          1.14134434e+04, 0., 8.06380798e+02, 1.18127617e+04, 0.,
          2.88499561e+03, 1.61276160e+03, 0., 0., 0., 0., 6.92638086e+03,
          1.14039465e+03, 7.69015625e+03, 1.61276160e+03, 0., 0., 0.,
          8.06380798e+02, 8.06380798e+02, 0., 3.60624451e+02, 0.,
          1.05791426e+04, 7.69015625e+03, 1.14039465e+03, 1.61276160e+03,
          1.50863809e+04, 0., 2.94351709e+03, 1.61276160e+03,
          2.23919043e+04, 1.97078066e+04, 2.28078931e+03, 1.61276160e+03,
          1.46591426e+04, 3.42118408e+03, 2.16374683e+03, 8.06380798e+02 ]
      - [ 8.06380798e+02, 3.30414136e+03, 1.14039465e+03, 8.06380798e+02,
          6120., 0., 0., 0., 0., 0., 0., 0., 3060., 1.14039465e+03,
          2.94351709e+03, 8.06380798e+02, 9.34552344e+03, 1.10528193e+04,
          2.28078931e+03, 1.61276160e+03, 8.06380798e+02, 0.,
          1.44249780e+03, 8.06380798e+02, 1.61276160e+03, 3.00203809e+03,
          0., 0., 1.07927617e+04, 1.14039465e+03, 5.16578516e+03,
          1.61276160e+03, 0., 0., 0., 0., 1.83119043e+04, 4.56157861e+03,
          5.76999121e+03, 8.06380798e+02, 0., 0., 0., 0., 6.92638086e+03,
          0., 3.60624451e+02, 0., 6.92638086e+03, 5.82851270e+03,
          9.12315723e+03, 6.45104639e+03, 2.48591426e+04, 2.28078931e+03,
          5.16578516e+03, 2.41914233e+03, 1.42319043e+04, 1.68228105e+04,
          1.14039463e+04, 8.87018848e+03, 32640., 1.14039465e+03,
          5.82851270e+03, 8.06380798e+02 ]
      - [ 5.69276172e+03, 4.44453613e+03, 1.14039465e+03, 1.61276160e+03,
          2550., 0., 0., 0., 0., 1.80312231e+03, 0., 0., 0., 0., 0., 0.,
          1.72919043e+04, 1.18325889e+04, 0., 0., 8.06380798e+02, 0.,
          1.44249780e+03, 8.06380798e+02, 2.63276172e+03, 9.85390332e+03,
          0., 0., 8.24276172e+03, 0., 1.80312231e+03, 2.41914233e+03, 0.,
          0., 0., 0., 2.28191426e+04, 3.42118408e+03, 8.41140527e+03,
          1.61276160e+03, 0., 3.60624463e+03, 3.42118408e+03,
          2.41914233e+03, 8.53914258e+03, 3.42118408e+03, 4.02539038e+03,
          8.06380798e+02, 4.45914258e+03, 2.21736562e+04, 7.98276270e+03,
          5.64466553e+03, 2.78363809e+04, 0., 1.86164355e+03,
          1.61276160e+03, 1.69474277e+04, 2.96202305e+04, 9.12315723e+03,
          7.25742725e+03, 28560., 0., 3.00203809e+03, 1.61276160e+03 ]
      - [ 4.88638086e+03, 1.44249780e+03, 0., 8.06380798e+02, 8160., 0.,
          0., 0., 0., 7.21248901e+02, 2.28078931e+03, 1.61276160e+03,
          4.88638086e+03, 0., 1.44249780e+03, 8.06380798e+02,
          6.92638086e+03, 8.29436230e+03, 3.42118408e+03, 3.22552319e+03,
          0., 0., 3.60624451e+02, 0., 510., 3.60624451e+02, 0., 0.,
          1.10063809e+04, 0., 1.44249780e+03, 8.06380798e+02, 0., 0., 0.,
          0., 1.78846660e+04, 7.98276270e+03, 5.46788818e+03,
          8.06380798e+02, 0., 0., 0., 0., 1.26191426e+04, 3.42118408e+03,
          2.52437109e+03, 0., 6.49914258e+03, 2.18130312e+04,
          4.56157861e+03, 3.22552319e+03, 3.05519043e+04, 2.28078931e+03,
          4.80516064e+03, 2.41914233e+03, 1.36391426e+04, 2.75830234e+04,
          6.84236816e+03, 5.64466553e+03, 3.11927617e+04, 2.28078931e+03,
          7.99225928e+03, 8.06380798e+02 ]
      - [ 0., 2.94351709e+03, 1.14039465e+03, 8.06380798e+02,
          1.28327617e+04, 2.28078931e+03, 7.21248901e+02, 0., 0., 0., 0.,
          0., 1.18127617e+04, 3.42118408e+03, 3.30414136e+03, 0.,
          1.55963809e+04, 1.34016260e+04, 4.56157861e+03, 3.22552319e+03,
          4.88638086e+03, 0., 1.44249780e+03, 8.06380798e+02,
          6.49914258e+03, 4.80516064e+03, 1.14039465e+03, 1.61276160e+03,
          1.69127617e+04, 0., 1.80312231e+03, 8.06380798e+02, 0., 0., 0.,
          0., 1.42319043e+04, 5.70197314e+03, 4.74663916e+03,
          8.06380798e+02, 0., 0., 0., 0., 4.88638086e+03, 0.,
          3.60624451e+02, 0., 7.00914258e+03, 7.38805273e+03,
          4.56157861e+03, 4.03190405e+03, 2.91527617e+04, 0.,
          4.80516064e+03, 2.41914233e+03, 1.85255234e+04, 1.35186689e+04,
          1.02635518e+04, 8.06380811e+03, 2.48591426e+04, 4.56157861e+03,
          6.91038623e+03, 8.06380798e+02 ]
      - [ 4080., 8.35288379e+03, 3.42118408e+03, 8.06380798e+02,
          3.94914233e+03, 0., 3.24562012e+03, 1.61276160e+03,
          5.69276172e+03, 4.44453613e+03, 3.42118408e+03, 8.06380798e+02,
          2040., 0., 1.50101904e+03, 0., 1.61276160e+03, 2.42788809e+04,
          0., 0., 8.75276172e+03, 0., 1.80312231e+03, 8.06380798e+02,
          1.31638086e+03, 1.52047490e+04, 3.42118408e+03, 2.41914233e+03,
          1.47419043e+04, 5.70197314e+03, 2.88499561e+03, 0., 9180., 0.,
          0., 0., 4.16276172e+03, 3.42118408e+03, 9.55179980e+03,
          2.41914233e+03, 8160., 0., 0., 0., 7.43638086e+03,
          1.14039465e+03, 9.07413281e+03, 8.06380798e+02, 8.19466602e+03,
          2.77585859e+04, 2.28078931e+03, 3.22552319e+03, 1.57619043e+04,
          4.56157861e+03, 1.80312231e+03, 8.06380798e+02, 1.10410469e+04,
          3.74954492e+04, 9.12315723e+03, 7.25742725e+03, 1.13855234e+04,
          4.56157861e+03, 1.44249780e+03, 0. ]
      - [ 8.06380798e+02, 3.30414136e+03, 1.14039465e+03, 8.06380798e+02,
          8160., 0., 0., 0., 0., 0., 0., 0., 6.49914258e+03,
          3.42118408e+03, 4.02539038e+03, 8.06380798e+02, 1.21919043e+04,
          1.35771904e+04, 1.14039465e+03, 1.61276160e+03, 8.06380798e+02,
          0., 1.44249780e+03, 8.06380798e+02, 1.61276160e+03,
          3.00203809e+03, 0., 0., 8.96638086e+03, 0., 4.44453613e+03,
          2.41914233e+03, 0., 0., 0., 0., 1.46591426e+04, 3.42118408e+03,
          1.12964004e+04, 1.61276160e+03, 0., 0., 0., 0., 1.30463809e+04,
          1.14039465e+03, 1.80312231e+03, 0., 8.96638086e+03,
          8.71350781e+03, 9.12315723e+03, 6.45104639e+03, 1.83119043e+04,
          4.56157861e+03, 4.38601465e+03, 1.61276160e+03, 1.62719043e+04,
          2.18715527e+04, 9.12315723e+03, 7.25742725e+03, 24480., 0.,
          1.50101904e+03, 8.06380798e+02 ]
      - [ 6.49914258e+03, 5.16578516e+03, 2.28078931e+03, 2.41914233e+03,
          8160., 0., 0., 0., 0., 5.40936719e+03, 3.42118408e+03,
          2.41914233e+03, 2040., 0., 0., 0., 1.42319043e+04,
          2.08482012e+04, 1.14039465e+03, 8.06380798e+02, 6.92638086e+03,
          0., 1.44249780e+03, 8.06380798e+02, 5.69276172e+03,
          1.34601475e+04, 1.14039465e+03, 8.06380798e+02, 1.61063809e+04,
          0., 2.16374683e+03, 2.41914233e+03, 0., 0., 0., 0.,
          1.42319043e+04, 5.70197314e+03, 7.63163477e+03, 8.06380798e+02,
          2040., 0., 0., 0., 1.10063809e+04, 1.14039465e+03,
          6.18913721e+03, 8.06380798e+02, 3.65276172e+03, 1.27388984e+04,
          9.12315723e+03, 7.25742725e+03, 1.96763809e+04, 0.,
          3.36266260e+03, 2.41914233e+03, 8.62190430e+03, 2.47565488e+04,
          7.98276270e+03, 6.45104639e+03, 22440., 0., 1.50101904e+03,
          8.06380798e+02 ]
      - [ 0., 4.68811816e+03, 1.14039465e+03, 8.06380798e+02, 2040., 0.,
          0., 0., 0., 0., 0., 0., 10200., 0., 0., 0., 2.52382852e+04,
          1.36942324e+04, 1.14039465e+03, 8.06380798e+02, 8.06380798e+02,
          0., 1.44249780e+03, 8.06380798e+02, 5.26552344e+03,
          7.38805322e+03, 0., 8.06380798e+02, 1.18127617e+04, 0.,
          2.88499561e+03, 1.61276160e+03, 1530., 7.21248901e+02,
          2.28078931e+03, 1.61276160e+03, 6.49914258e+03, 3.42118408e+03,
          5.40936719e+03, 0., 1530., 3.60624451e+02, 1.14039465e+03,
          1.61276160e+03, 1.84427617e+04, 3.42118408e+03, 3.60624451e+02,
          0., 6.49914258e+03, 1.09357764e+04, 2.28078931e+03,
          2.41914233e+03, 1.91663809e+04, 0., 5.94555518e+03,
          3.22552319e+03, 1.99246660e+04, 2.37917168e+04, 5.70197314e+03,
          4.83828467e+03, 2.07791426e+04, 3.42118408e+03, 4.02539038e+03,
          8.06380798e+02 ]
      - [ 8.06380798e+02, 3.30414136e+03, 1.14039465e+03, 8.06380798e+02,
          10200., 0., 0., 0., 0., 0., 0., 0., 5100., 1.14039465e+03,
          2.94351709e+03, 8.06380798e+02, 1.01519043e+04, 1.29144629e+04,
          3.42118408e+03, 2.41914233e+03, 0., 0., 3.60624451e+02,
          8.06380798e+02, 1.82638086e+03, 3.60624451e+02, 0., 0.,
          1.69127617e+04, 1.14039465e+03, 3.66476587e+03, 8.06380798e+02,
          0., 0., 0., 0., 1.83119043e+04, 5.70197314e+03, 6.13061572e+03,
          0., 0., 0., 0., 0., 5.90638086e+03, 0., 3.60624451e+02, 0.,
          2.84638086e+03, 1.05166309e+04, 5.70197314e+03, 4.03190405e+03,
          2.77055234e+04, 2.28078931e+03, 7.74867773e+03, 3.22552319e+03,
          1.19782852e+04, 2.04875762e+04, 1.02635518e+04, 8.87018848e+03,
          3.52727617e+04, 2.28078931e+03, 4.80516064e+03, 2.41914233e+03 ]
      - [ 8.06380798e+02, 2.94351709e+03, 0., 0., 1.10063809e+04,
          1.14039465e+03, 3.60624451e+02, 0., 0., 0., 0., 0.,
          1.05791426e+04, 2.28078931e+03, 2.16374683e+03, 8.06380798e+02,
          8.53914258e+03, 1.31580449e+04, 4.56157861e+03, 3.22552319e+03,
          4.88638086e+03, 0., 1.44249780e+03, 8.06380798e+02,
          4.88638086e+03, 6.18913721e+03, 1.14039465e+03, 8.06380798e+02,
          1.30463809e+04, 1.14039465e+03, 3.30414136e+03, 8.06380798e+02,
          0., 0., 0., 0., 1.83119043e+04, 4.56157861e+03, 4.38601465e+03,
          1.61276160e+03, 0., 0., 0., 0., 1.30463809e+04, 1.14039465e+03,
          1.80312231e+03, 0., 8.96638086e+03, 6.13061572e+03,
          5.70197314e+03, 4.83828467e+03, 2.73263809e+04, 0.,
          2.94351709e+03, 1.61276160e+03, 1.13855234e+04, 1.35186689e+04,
          1.02635518e+04, 8.06380811e+03, 26520., 0., 1.50101904e+03,
          8.06380798e+02 ]
      - [ 0., 1.80312231e+03, 5.70197314e+03, 4.03190405e+03,
          8.96638086e+03, 1.14039465e+03, 3.60624451e+02, 0., 0.,
          7.21248901e+02, 2.28078931e+03, 1.61276160e+03, 6.92638086e+03,
          2.28078931e+03, 3.60624451e+02, 0., 0., 1.91130957e+04,
          1.14039465e+03, 8.06380798e+02, 1.28327617e+04, 0.,
          7.21248901e+02, 8.06380798e+02, 0., 7.93373828e+03,
          4.56157861e+03, 2.41914233e+03, 2.37563809e+04, 0.,
          3.60624451e+02, 0., 0., 0., 0., 0., 7.30552344e+03,
          4.56157861e+03, 8.65498730e+03, 0., 0., 0., 0., 0.,
          8.06380798e+02, 0., 3.60624451e+02, 0., 1.21919043e+04,
          1.18325889e+04, 2.28078931e+03, 2.41914233e+03, 18870., 0.,
          2.94351685e+03, 8.06380798e+02, 1.83946660e+04, 2.88404609e+04,
          1.14039465e+03, 8.06380798e+02, 2.20127617e+04, 2.28078931e+03,
          4.80516064e+03, 2.41914233e+03 ]
      - [ 3.14276172e+03, 1.42399180e+04, 1.14039465e+03, 8.06380798e+02,
          4080., 0., 0., 0., 1.31638086e+03, 4.80516064e+03,
          4.56157861e+03, 3.22552319e+03, 2040., 0., 0., 8.06380798e+02,
          1.61276160e+03, 1.87524727e+04, 0., 0., 4.67276172e+03, 0.,
          7.21248901e+02, 8.06380798e+02, 0., 6.85186475e+03,
          1.14039465e+03, 0., 1.53827617e+04, 0., 7.21248901e+02,
          1.61276160e+03, 0., 0., 0., 0., 1.46591426e+04, 3.42118408e+03,
          1.27974199e+04, 2.41914233e+03, 2040., 3.60624451e+02,
          1.14039465e+03, 8.06380798e+02, 6.07190381e+03, 4.56157861e+03,
          7.27101074e+03, 1.61276160e+03, 1.55482852e+04, 2.42108633e+04,
          3.42118408e+03, 1.61276160e+03, 23970., 0., 7.21248901e+02, 0.,
          2.21301895e+04, 3.32264766e+04, 1.14039465e+03, 1.61276160e+03,
          27030., 0., 1.50101904e+03, 8.06380798e+02 ]
      - [ 3.43914233e+03, 8.46992676e+03, 1.14039465e+03, 8.06380798e+02,
          0., 0., 0., 0., 0., 6.13061621e+03, 0., 0., 0., 0., 0.,
          8.06380798e+02, 1020., 1.37622510e+04, 2.28078931e+03,
          1.61276160e+03, 8.06380798e+02, 0., 7.21248901e+02,
          8.06380798e+02, 8.06380798e+02, 3.30414136e+03, 0.,
          8.06380798e+02, 1.05791426e+04, 2.28078931e+03, 2.16374658e+03,
          1.61276160e+03, 0., 7.21248901e+02, 2.28078931e+03,
          1.61276160e+03, 1.46591426e+04, 3.42118408e+03, 9.91242383e+03,
          2.41914233e+03, 2040., 3.60624451e+02, 1.14039465e+03,
          8.06380798e+02, 1.05791426e+04, 2.28078931e+03, 3.66476587e+03,
          1.61276160e+03, 1.75882852e+04, 2.56533613e+04, 1.14039465e+03,
          2.41914233e+03, 2.30327617e+04, 0., 3.60624451e+02,
          8.06380798e+02, 1.92838086e+04, 4.20570273e+04, 0.,
          8.06380798e+02, 24480., 0., 1.50101904e+03, 8.06380798e+02 ]
      - [ 4.88638086e+03, 2.16374683e+03, 4.56157861e+03, 2.41914233e+03,
          3.35638086e+03, 0., 3.60624451e+02, 0., 2.84638086e+03,
          2.94351709e+03, 3.42118408e+03, 8.06380798e+02, 3.86638086e+03,
          0., 7.21248901e+02, 1.61276160e+03, 0., 1.33431055e+04,
          4.56157861e+03, 2.41914233e+03, 8.96638086e+03, 0.,
          1.44249780e+03, 8.06380798e+02, 510., 6.13061572e+03,
          1.14039465e+03, 8.06380798e+02, 2.06963809e+04, 0.,
          3.60624451e+02, 0., 4080., 0., 0., 0., 1.62719043e+04,
          5.70197314e+03, 7.74867725e+03, 2.41914233e+03, 4080., 0., 0.,
          0., 1.05791426e+04, 2.28078931e+03, 5.16578516e+03,
          2.41914233e+03, 1.29982852e+04, 2.70373379e+04, 3.42118408e+03,
          2.41914233e+03, 17340., 0., 7.21248901e+02, 8.06380798e+02,
          1.36738076e+04, 3.55072656e+04, 3.42118408e+03, 1.61276160e+03,
          22950., 0., 0., 0. ]
      - [ 6.92638086e+03, 1.80312231e+03, 2.28078931e+03, 2.41914233e+03,
          6.92638086e+03, 0., 3.60624451e+02, 0., 3.65276172e+03,
          4.38601465e+03, 3.42118408e+03, 1.61276160e+03, 2040., 0.,
          1.08187341e+03, 8.06380798e+02, 0., 1.33431055e+04,
          4.56157861e+03, 3.22552319e+03, 8.75276172e+03, 0.,
          7.21248901e+02, 8.06380798e+02, 0., 4.32749365e+03,
          4.56157861e+03, 3.22552319e+03, 1.76363809e+04, 0.,
          3.60624451e+02, 0., 1020., 3.60624451e+02, 0., 8.06380798e+02,
          9.55914258e+03, 3.42118408e+03, 1.23197529e+04, 8.06380798e+02,
          0., 0., 0., 0., 1.05791426e+04, 3.42118408e+03, 8.05078076e+03,
          1.61276160e+03, 1.42319043e+04, 2.62575684e+04, 4.56157861e+03,
          2.41914233e+03, 19890., 0., 7.21248901e+02, 8.06380798e+02,
          1.89874277e+04, 3.50295977e+04, 2.28078931e+03, 1.61276160e+03,
          24990., 0., 1.50101904e+03, 8.06380798e+02 ]
      - [ 0., 0., 0., 0., 0., 0., 0., 0., 0., 0., 0., 0., 0., 0., 0., 0.,
          5.77552344e+03, 1.57994580e+04, 0., 0., 6.92638086e+03, 0.,
          1.44249780e+03, 8.06380798e+02, 1.82638086e+03, 8.83055078e+03,
          0., 0., 1.10063809e+04, 1.14039465e+03, 1.80312231e+03, 0.,
          1.61276160e+03, 1.30995234e+04, 0., 0., 1.31638086e+03, 0.,
          3.60624451e+02, 1.61276160e+03, 9180., 0., 0., 0., 0., 0., 0.,
          0., 3.36119023e+04, 1.64621855e+04, 1.14039465e+03,
          3.22552319e+03, 2.97455234e+04, 0., 5.76999121e+03,
          3.22552319e+03, 4.24955234e+04, 1.63451436e+04, 1.14039465e+03,
          3.22552319e+03, 3.99455234e+04, 2.28078931e+03, 4.32749365e+03,
          2.41914233e+03 ]
      - [ 0., 0., 0., 0., 0., 0., 0., 0., 0., 0., 0., 0., 0., 0., 0., 0.,
          3.22552319e+03, 2.61990469e+04, 0., 0., 4.67276172e+03, 0.,
          3.60624451e+02, 8.06380798e+02, 2.12276172e+03, 5.16578516e+03,
          2.28078931e+03, 1.61276160e+03, 1.50863809e+04, 1.14039465e+03,
          3.60624451e+02, 0., 1.61276160e+03, 1.34601475e+04,
          1.14039465e+03, 8.06380798e+02, 8.06380798e+02, 0.,
          1.44249780e+03, 8.06380798e+02, 10200., 0., 0., 0., 0., 0., 0.,
          0., 2.13719043e+04, 1.75440586e+04, 0., 8.06380798e+02,
          1.18127617e+04, 1.14039465e+03, 4.74663916e+03, 1.61276160e+03,
          4.03246641e+04, 2.37331973e+04, 1.14039465e+03, 2.41914233e+03,
          1.72091426e+04, 1.14039465e+03, 5.10726367e+03, 3.22552319e+03 ]
      - [ 0., 0., 0., 0., 0., 0., 0., 0., 0., 0., 0., 0., 0., 0., 0., 0.,
          8.06380811e+03, 2.47470508e+04, 0., 0., 7.43638086e+03, 0.,
          1.44249780e+03, 8.06380798e+02, 3.22552319e+03, 1.17740684e+04,
          0., 0., 1.49555234e+04, 2.28078931e+03, 7.21248901e+02,
          8.06380798e+02, 4.03190405e+03, 1.32750869e+04, 0., 0., 1020.,
          0., 7.21248901e+02, 1.61276160e+03, 12240., 0., 0., 0., 0., 0.,
          0., 0., 3.33155234e+04, 1.02730488e+04, 0., 8.06380798e+02,
          1.38527617e+04, 1.14039465e+03, 1.07507158e+04, 4.83828467e+03,
          3.50110469e+04, 2.09067227e+04, 1.14039465e+03, 2.41914233e+03,
          1.90355234e+04, 1.14039465e+03, 4.02539038e+03, 3.22552319e+03 ]
      - [ 5.69276172e+03, 3.00203809e+03, 0., 0., 0., 0., 0., 0., 0., 0.,
          0., 0., 0., 0., 0., 0., 2.23438086e+04, 1.48931484e+04, 0.,
          1.61276160e+03, 2.84638086e+03, 0., 1.44249780e+03,
          8.06380798e+02, 7.30552344e+03, 6.00407617e+03, 0., 0.,
          1.30463809e+04, 0., 1.44249780e+03, 8.06380798e+02,
          2.84638086e+03, 1.44249780e+03, 0., 8.06380798e+02,
          2.84638086e+03, 1.14039465e+03, 1.80312231e+03, 0.,
          8.96638086e+03, 1.50101904e+03, 0., 0., 0., 0., 0., 0.,
          2.60927617e+04, 2.88499561e+03, 0., 1.61276160e+03,
          1.87391426e+04, 1.14039465e+03, 6.18913721e+03, 2.41914233e+03,
          3.78574258e+04, 1.33336084e+04, 0., 2.41914233e+03,
          1.79327617e+04, 1.14039465e+03, 4.74663916e+03, 1.61276160e+03 ]
      - [ 8.06380798e+02, 1.86164355e+03, 0., 0., 0., 0., 0., 0., 0., 0.,
          0., 0., 0., 0., 0., 0., 7.25742725e+03, 2.25247832e+04, 0., 0.,
          1.30463809e+04, 0., 1.44249780e+03, 8.06380798e+02,
          5.64466553e+03, 1.55558760e+04, 0., 0., 20400., 0., 0., 0.,
          5.56190381e+03, 1.24953164e+04, 1.14039465e+03, 1.61276160e+03,
          2.84638086e+03, 0., 1.50101904e+03, 2.41914233e+03,
          1.45763809e+04, 1.50101904e+03, 0., 0., 1020., 0.,
          7.21248901e+02, 8.06380798e+02, 4.03727617e+04, 1.44249780e+03,
          3.42118408e+03, 3.22552319e+03, 5.05190381e+03, 3.42118408e+03,
          4.38601465e+03, 3.22552319e+03, 4.38119023e+04, 1.27974199e+04,
          1.14039465e+03, 2.41914233e+03, 1.79327617e+04, 0.,
          2.88499561e+03, 2.41914233e+03 ]
      - [ 0., 0., 0., 0., 0., 0., 0., 0., 0., 0., 0., 0., 0., 0., 0., 0.,
          8.06380798e+02, 1.37037295e+04, 2.28078931e+03, 8.06380798e+02,
          1.10063809e+04, 2.28078931e+03, 1.08187341e+03, 8.06380798e+02,
          2.92914233e+03, 1.15399824e+04, 0., 1.61276160e+03,
          1.61063809e+04, 0., 3.60624451e+02, 0., 3.22552319e+03,
          9.19117578e+03, 1.14039465e+03, 1.61276160e+03, 1.31638086e+03,
          0., 3.60624451e+02, 1.61276160e+03, 9180., 0., 0., 0., 0., 0.,
          0., 0., 3.10619043e+04, 8.88907227e+03, 0., 0., 8.75276172e+03,
          0., 5.88703418e+03, 3.22552319e+03, 3.70991406e+04,
          6.49124023e+03, 0., 2.41914233e+03, 1.84427617e+04,
          1.14039465e+03, 4.38601465e+03, 3.22552319e+03 ]
      - [ 8.06380798e+02, 2.94351709e+03, 0., 0., 0., 0., 0., 0., 0., 0.,
          0., 0., 0., 0., 0., 0., 5.64466553e+03, 2.13258672e+04, 0., 0.,
          1.50863809e+04, 0., 1.44249780e+03, 8.06380798e+02,
          5.64466553e+03, 1.84408711e+04, 0., 0., 20400., 0., 0., 0.,
          5.26552344e+03, 1.27974199e+04, 2.28078931e+03, 1.61276160e+03,
          1530., 0., 1.44249780e+03, 1.61276160e+03, 1.69127617e+04,
          2.58289258e+03, 0., 0., 1.82638086e+03, 0., 3.60624451e+02,
          1.61276160e+03, 4.16063789e+04, 1.44249780e+03, 0.,
          8.06380798e+02, 1.38527617e+04, 1.14039465e+03, 4.74663916e+03,
          1.61276160e+03, 4.81055234e+04, 1.01560059e+04, 0.,
          2.41914233e+03, 1.99727617e+04, 1.14039465e+03, 4.74663916e+03,
          1.61276160e+03 ]
      - [ 7.30552344e+03, 5.94555518e+03, 0., 8.06380798e+02, 2040., 0.,
          0., 0., 0., 0., 0., 0., 0., 0., 0., 0., 8.49104688e+03,
          1.63356465e+04, 0., 0., 1.07927617e+04, 0., 3.60624451e+02,
          8.06380798e+02, 5.34828467e+03, 1.33336084e+04, 0., 0., 20400.,
          0., 0., 0., 0., 0., 0., 0., 4.88638086e+03, 1.14039465e+03,
          3.30414136e+03, 8.06380798e+02, 4.45914258e+03, 4.50305713e+03,
          0., 0., 0., 0., 0., 0., 2.20127617e+04, 3.60624463e+03,
          2.28078931e+03, 3.22552319e+03, 1.67819043e+04, 3.42118408e+03,
          7.93373828e+03, 1.61276160e+03, 2.88082852e+04, 1.36357109e+04,
          2.28078931e+03, 2.41914233e+03, 2.04827617e+04, 1.14039465e+03,
          4.74663916e+03, 1.61276160e+03 ]
      - [ 8.53914258e+03, 4.32749365e+03, 0., 2.41914233e+03, 2040., 0.,
          0., 0., 0., 0., 0., 0., 0., 0., 0., 0., 2.09446660e+04,
          1.15304863e+04, 0., 1.61276160e+03, 6.71276172e+03, 0.,
          7.21248901e+02, 0., 1.11719043e+04, 7.44657422e+03, 0.,
          8.06380798e+02, 1.56791426e+04, 0., 3.96686914e+03,
          1.61276160e+03, 0., 0., 0., 0., 8.06380798e+02, 0.,
          1.44249780e+03, 8.06380798e+02, 10200., 0., 0., 0., 0., 0., 0.,
          0., 1.99727617e+04, 2.88499561e+03, 0., 1.61276160e+03,
          1.66991426e+04, 0., 4.32749365e+03, 2.41914233e+03,
          3.87119023e+04, 7.32953174e+03, 0., 2.41914233e+03,
          1.38527617e+04, 0., 5.88703418e+03, 3.22552319e+03 ]
      - [ 8.06380798e+02, 9.79538184e+03, 3.42118408e+03, 2.41914233e+03,
          2040., 0., 0., 0., 0., 4.68811816e+03, 1.14039465e+03,
          8.06380798e+02, 0., 0., 0., 0., 1.26191426e+04, 5.64345215e+03,
          0., 0., 1020., 0., 1.47175850e+04, 4.03190405e+03,
          2.07791426e+04, 7.38805322e+03, 0., 0., 5.47914258e+03,
          3.42118408e+03, 1.54388340e+04, 3.22552319e+03, 0., 0., 0., 0.,
          1.83119043e+04, 5.70197314e+03, 9.01561133e+03, 0., 0.,
          3.60624451e+02, 1.14039465e+03, 8.06380798e+02, 1.13855234e+04,
          4.56157861e+03, 2.88499561e+03, 0., 1.83119043e+04,
          1.29144629e+04, 3.42118408e+03, 2.41914233e+03, 1.20263809e+04,
          1.14039465e+03, 7.50509570e+03, 3.22552319e+03, 1.40182852e+04,
          1.62771250e+04, 5.70197314e+03, 4.03190405e+03, 1.28327617e+04,
          2.28078931e+03, 1.11113398e+04, 4.03190405e+03 ]
      - [ 0., 5.04874219e+03, 6.84236816e+03, 4.83828467e+03, 6120., 0.,
          0., 0., 8.06380798e+02, 4.02539038e+03, 3.42118408e+03,
          2.41914233e+03, 2040., 0., 0., 0., 0., 0., 0., 0.,
          4.45914258e+03, 3.42118408e+03, 1.30315049e+04, 5.64466553e+03,
          2.31982852e+04, 9.00611426e+03, 0., 0., 8.11190381e+03,
          5.70197314e+03, 1.04581094e+04, 0., 0., 3.60624451e+02,
          1.14039465e+03, 8.06380798e+02, 1.38046660e+04, 7.98276270e+03,
          1.26218564e+04, 0., 0., 0., 0., 0., 1.26191426e+04,
          3.42118408e+03, 5.40936719e+03, 0., 2.44319043e+04,
          1.57994580e+04, 3.42118408e+03, 2.41914233e+03, 9.77276172e+03,
          2.28078931e+03, 5.22430615e+03, 2.41914233e+03, 7.09190381e+03,
          1.94057031e+04, 5.70197314e+03, 4.03190405e+03, 14280., 0.,
          1.03900908e+04, 4.03190405e+03 ]
      - [ 0., 7.57311377e+03, 1.14039465e+03, 8.06380798e+02, 0., 0., 0.,
          0., 0., 0., 0., 0., 0., 0., 0., 0., 2.85119043e+04,
          7.50509570e+03, 0., 0., 0., 0., 5.94555518e+03, 2.41914233e+03,
          2.68991426e+04, 5.94555518e+03, 0., 0., 2.84638086e+03,
          1.14039465e+03, 1.21932139e+04, 4.03190405e+03, 0.,
          7.21248901e+02, 2.28078931e+03, 1.61276160e+03, 1.26191426e+04,
          3.42118408e+03, 6.91038623e+03, 8.06380798e+02, 0.,
          1.80312231e+03, 1.14039465e+03, 8.06380798e+02, 5.69276172e+03,
          2.28078931e+03, 7.21248901e+02, 0., 2.89391426e+04,
          7.02742871e+03, 3.42118408e+03, 2.41914233e+03, 6.92638086e+03,
          1.14039465e+03, 9.24969629e+03, 3.22552319e+03, 3.05519043e+04,
          1.72419570e+04, 3.42118408e+03, 2.41914233e+03, 1.26191426e+04,
          3.42118408e+03, 7.02742871e+03, 2.41914233e+03 ]
      - [ 0., 2.52437109e+03, 3.42118408e+03, 2.41914233e+03, 0., 0., 0.,
          0., 0., 0., 0., 0., 0., 0., 0., 0., 2.44319043e+04,
          1.03900908e+04, 0., 0., 0., 0., 5.94555518e+03, 2.41914233e+03,
          2.28191426e+04, 5.94555518e+03, 0., 0., 2.41914233e+03,
          3.42118408e+03, 1.29144629e+04, 4.03190405e+03, 0., 0., 0., 0.,
          1.66991426e+04, 3.42118408e+03, 2.52437109e+03, 0., 0., 0., 0.,
          0., 0., 0., 0., 0., 2.07791426e+04, 9.19117578e+03,
          1.14039465e+03, 8.06380798e+02, 8.96638086e+03, 1.14039465e+03,
          1.36357109e+04, 4.03190405e+03, 2.64719043e+04, 1.14719648e+04,
          7.98276270e+03, 5.64466553e+03, 1.95455234e+04, 3.42118408e+03,
          8.52844727e+03, 4.03190405e+03 ]
      - [ 8.06380798e+02, 9.07413281e+03, 1.14039465e+03, 8.06380798e+02,
          2040., 0., 0., 0., 8.06380798e+02, 2.94351709e+03, 0., 0., 0.,
          0., 0., 0., 2.31982852e+04, 9.00611426e+03, 0., 0., 0., 0.,
          5.52640967e+03, 1.61276160e+03, 3.83327617e+04, 3.00203809e+03,
          0., 0., 1.31638086e+03, 2.28078931e+03, 1.84408711e+04,
          5.64466553e+03, 0., 3.60624451e+02, 2.28078931e+03,
          8.06380798e+02, 1.03655234e+04, 4.56157861e+03, 6.54976172e+03,
          1.61276160e+03, 0., 2.88499561e+03, 1.14039465e+03, 0., 7140.,
          1.14039465e+03, 4.08391162e+03, 1.61276160e+03, 3.30191406e+04,
          1.17155469e+04, 1.14039465e+03, 8.06380798e+02, 6630., 0.,
          8.94759375e+03, 4.83828467e+03, 2.60446660e+04, 1.84408711e+04,
          3.42118408e+03, 2.41914233e+03, 8.96638086e+03, 1.14039465e+03,
          4.50305713e+03, 2.41914233e+03 ]
      - [ 2.84638086e+03, 1.19591289e+04, 1.14039465e+03, 8.06380798e+02,
          2040., 0., 0., 0., 0., 4.32749365e+03, 0., 0., 0., 0., 0., 0.,
          3.17855234e+04, 6.00407617e+03, 0., 0., 8.06380798e+02,
          1.14039465e+03, 9.30821777e+03, 4.03190405e+03, 2.85119043e+04,
          7.50509570e+03, 0., 0., 2.84638086e+03, 1.14039465e+03,
          1.79632051e+04, 4.03190405e+03, 0., 7.21248901e+02,
          2.28078931e+03, 1.61276160e+03, 1.26191426e+04, 3.42118408e+03,
          1.27974199e+04, 2.41914233e+03, 0., 1.08187329e+03,
          3.42118408e+03, 2.41914233e+03, 8.53914258e+03, 2.28078931e+03,
          3.66476587e+03, 1.61276160e+03, 3.25919043e+04, 1.00294668e+04,
          3.42118408e+03, 2.41914233e+03, 7.73276172e+03, 2.28078931e+03,
          3.72328711e+03, 1.61276160e+03, 3.82846641e+04, 1.47761064e+04,
          4.56157861e+03, 4.03190405e+03, 9.77276172e+03, 2.28078931e+03,
          5.22430615e+03, 2.41914233e+03 ]
      - [ 1.61276160e+03, 7.27101074e+03, 4.56157861e+03, 4.03190405e+03,
          2040., 0., 0., 0., 0., 1.80312231e+03, 0., 0., 0., 0., 0., 0.,
          5.47914258e+03, 4.50305713e+03, 0., 0., 2.84638086e+03,
          1.14039465e+03, 9.19117578e+03, 2.41914233e+03, 2.68991426e+04,
          9.91242383e+03, 0., 0., 7.30552344e+03, 4.56157861e+03,
          1.31580449e+04, 2.41914233e+03, 0., 0., 0., 0., 1.66991426e+04,
          3.42118408e+03, 1.11793584e+04, 0., 0., 0., 1.14039465e+03,
          8.06380798e+02, 1.18127617e+04, 2.28078931e+03, 7.21248901e+02,
          0., 2.89391426e+04, 1.20761709e+04, 1.14039465e+03,
          8.06380798e+02, 10200., 0., 7.38805322e+03, 2.41914233e+03,
          3.05519043e+04, 1.39963359e+04, 5.70197314e+03, 4.03190405e+03,
          1.38527617e+04, 1.14039465e+03, 4.80516064e+03, 2.41914233e+03 ]
      - [ 0., 1.80312231e+03, 1.14039465e+03, 8.06380798e+02, 0., 0., 0.,
          0., 0., 0., 0., 0., 0., 0., 0., 0., 1.99246660e+04,
          1.30315049e+04, 0., 0., 0., 0., 2.64141382e+03, 1.61276160e+03,
          2.91527617e+04, 2.64141382e+03, 0., 0., 8.06380798e+02,
          1.14039465e+03, 1.47175850e+04, 4.03190405e+03, 0.,
          7.21248901e+02, 1.14039465e+03, 1.61276160e+03, 8.53914258e+03,
          2.28078931e+03, 2.52437109e+03, 0., 0., 7.21248901e+02,
          1.14039465e+03, 0., 3060., 1.14039465e+03, 7.21248901e+02, 0.,
          3.02555234e+04, 8.22634473e+03, 1.14039465e+03, 0., 3060.,
          1.14039465e+03, 1.51367305e+04, 4.83828467e+03, 2.62582852e+04,
          1.65792285e+04, 2.28078931e+03, 3.22552319e+03, 7.22276172e+03,
          1.14039465e+03, 7.74867773e+03, 2.41914233e+03 ]
      - [ 1.61276160e+03, 8.05078076e+03, 2.28078931e+03, 1.61276160e+03,
          0., 0., 0., 0., 1.82638086e+03, 3.60624451e+02, 0., 0., 0., 0.,
          0., 0., 2.89391426e+04, 4.50305713e+03, 0., 0., 0., 0.,
          3.60624451e+02, 8.06380798e+02, 19380., 0., 0., 0.,
          8.06380798e+02, 1.14039465e+03, 1.50782090e+04, 4.03190405e+03,
          2040., 7.21248901e+02, 2.28078931e+03, 1.61276160e+03,
          6.20276172e+03, 2.28078931e+03, 1.15985039e+04, 8.06380798e+02,
          1020., 5.46788818e+03, 1.14039465e+03, 0., 2550.,
          1.14039465e+03, 5.10726367e+03, 8.06380798e+02, 3.91391406e+04,
          5.58493066e+03, 1.14039465e+03, 8.06380798e+02, 5610.,
          1.14039465e+03, 1.38697969e+04, 6.45104639e+03, 4.78919023e+04,
          1.29144629e+04, 5.70197314e+03, 3.22552319e+03, 7.51914258e+03,
          3.42118408e+03, 3.72328711e+03, 1.61276160e+03 ]
      - [ 2.41914233e+03, 1.05751523e+04, 1.14039465e+03, 1.61276160e+03,
          0., 0., 0., 0., 0., 1.80312231e+03, 0., 0., 0., 0., 0., 0.,
          2.97455234e+04, 6.00407617e+03, 0., 0., 0., 0., 5.94555518e+03,
          2.41914233e+03, 3.50591406e+04, 4.14243262e+03, 0., 0.,
          1.61276160e+03, 2.28078931e+03, 1.55558760e+04, 5.64466553e+03,
          0., 3.60624451e+02, 1.14039465e+03, 8.06380798e+02,
          1.66991426e+04, 3.42118408e+03, 9.91242383e+03, 2.41914233e+03,
          0., 2.88499561e+03, 1.14039465e+03, 8.06380798e+02,
          1.10063809e+04, 1.14039465e+03, 4.68811816e+03, 0.,
          3.17855234e+04, 1.14134434e+04, 3.42118408e+03, 2.41914233e+03,
          6.49914258e+03, 3.42118408e+03, 7.08594971e+03, 3.22552319e+03,
          3.25919043e+04, 1.65207070e+04, 4.56157861e+03, 3.22552319e+03,
          1.18127617e+04, 2.28078931e+03, 6.60828271e+03, 1.61276160e+03 ]
      - [ 1.61276160e+03, 8.41140527e+03, 3.42118408e+03, 2.41914233e+03,
          2040., 0., 0., 0., 0., 1.80312231e+03, 0., 0., 0., 0., 0., 0.,
          2.68991426e+04, 4.50305713e+03, 0., 0., 0., 0., 8.94759375e+03,
          4.03190405e+03, 2.28191426e+04, 7.02742871e+03, 0., 0.,
          1.61276160e+03, 2.28078931e+03, 1.83238301e+04, 4.03190405e+03,
          0., 7.21248901e+02, 2.28078931e+03, 1.61276160e+03,
          1.01519043e+04, 5.70197314e+03, 1.05166309e+04, 8.06380798e+02,
          0., 0., 1.14039465e+03, 8.06380798e+02, 1.10063809e+04,
          1.14039465e+03, 1.80312231e+03, 0., 2.68991426e+04,
          5.52640918e+03, 3.42118408e+03, 3.22552319e+03, 7.73276172e+03,
          2.28078931e+03, 6.72532520e+03, 3.22552319e+03, 3.09791426e+04,
          1.31580449e+04, 3.42118408e+03, 2.41914233e+03, 1.50863809e+04,
          1.14039465e+03, 7.74867773e+03, 2.41914233e+03 ]
      - [ 4.45914258e+03, 4.08391162e+03, 0., 8.06380798e+02, 12240., 0.,
          0., 0., 0., 2.16374683e+03, 3.42118408e+03, 2.41914233e+03,
          4080., 0., 0., 0., 9.93828516e+03, 9.00611426e+03, 0., 0., 0.,
          0., 0., 0., 8.06380798e+02, 5.10726367e+03, 2.28078931e+03,
          1.61276160e+03, 2.33638086e+03, 0., 1.08187329e+03,
          3.22552319e+03, 510., 4.74663916e+03, 2.28078931e+03,
          1.61276160e+03, 2.50727617e+04, 0., 3.60624451e+02,
          8.06380798e+02, 2.63276172e+03, 7.74867773e+03, 2.28078931e+03,
          1.61276160e+03, 1.71263809e+04, 0., 1.44249780e+03,
          8.06380798e+02, 1.17993311e+04, 2.64821562e+04, 0., 0., 0., 0.,
          0., 0., 2.31848535e+04, 2.99033398e+04, 1.14039465e+03,
          1.61276160e+03, 0., 0., 0., 0. ]
      - [ 2.84638086e+03, 1.44249780e+03, 0., 8.06380798e+02, 8160., 0.,
          0., 0., 0., 0., 0., 0., 8.96638086e+03, 0., 1.44249780e+03,
          8.06380798e+02, 0., 0., 0., 0., 0., 0., 0., 0., 0., 0., 0., 0.,
          0., 0., 0., 0., 510., 0., 0., 0., 2.52863809e+04,
          1.14039465e+03, 3.30414136e+03, 8.06380798e+02, 8.06380798e+02,
          4.38601465e+03, 0., 0., 1.89527617e+04, 0., 3.60624451e+02,
          8.06380798e+02, 2.88429512e+04, 2.45619902e+04, 0., 0., 0., 0.,
          0., 0., 2.96493320e+04, 2.60044883e+04, 0., 8.06380798e+02,
          2.84638086e+03, 0., 1.44249780e+03, 8.06380798e+02 ]
      - [ 8.06380798e+02, 3.30414136e+03, 1.14039465e+03, 8.06380798e+02,
          10200., 0., 0., 0., 0., 0., 0., 0., 1.10063809e+04,
          1.14039465e+03, 3.30414136e+03, 8.06380798e+02, 0., 0., 0., 0.,
          0., 0., 0., 0., 0., 0., 0., 0., 0., 0., 0., 0., 1.31638086e+03,
          1.50101904e+03, 0., 0., 2.93663809e+04, 0., 1.44249780e+03,
          8.06380798e+02, 7.73276172e+03, 3.00203809e+03, 0., 0.,
          1.69127617e+04, 0., 3.60624451e+02, 8.06380798e+02,
          3.41565703e+04, 2.08972246e+04, 0., 0., 0., 0., 0., 0.,
          3.29229492e+04, 2.59459668e+04, 2.28078931e+03, 2.41914233e+03,
          8.06380798e+02, 1.14039465e+03, 3.30414136e+03, 8.06380798e+02 ]
      - [ 2.41914233e+03, 4.44453613e+03, 0., 8.06380798e+02, 10200., 0.,
          0., 0., 0., 0., 0., 0., 1.30463809e+04, 0., 1.44249780e+03,
          8.06380798e+02, 6.45104639e+03, 1.20081523e+04, 0., 0., 0., 0.,
          0., 0., 0., 3.60624451e+02, 1.14039465e+03, 8.06380798e+02,
          2.41914233e+03, 2.28078931e+03, 2.16374683e+03, 8.06380798e+02,
          0., 0., 0., 0., 2.93663809e+04, 0., 1.44249780e+03,
          8.06380798e+02, 4.45914258e+03, 4.50305713e+03, 0., 0.,
          1.50863809e+04, 0., 1.44249780e+03, 8.06380798e+02,
          1.49420928e+04, 2.40163047e+04, 0., 0., 0., 0., 0., 0.,
          2.09659004e+04, 4.04689961e+04, 0., 0., 0., 0., 0., 0. ]
      - [ 2.84638086e+03, 1.44249780e+03, 0., 8.06380798e+02, 10200., 0.,
          0., 0., 0., 0., 0., 0., 5100., 0., 1.08187341e+03,
          8.06380798e+02, 7.94638086e+03, 3.60624451e+02, 0., 0., 0., 0.,
          0., 0., 0., 0., 0., 0., 5.90638086e+03, 0., 7.21248901e+02,
          8.06380798e+02, 0., 0., 0., 0., 2.52863809e+04, 0.,
          1.44249780e+03, 8.06380798e+02, 2.84638086e+03, 1.50101904e+03,
          0., 0., 8.96638086e+03, 0., 3.60624451e+02, 0., 1.97938086e+04,
          2.40843242e+04, 0., 0., 0., 0., 0., 0., 2.80365703e+04,
          2.87724414e+04, 0., 8.06380798e+02, 1.07927617e+04, 0.,
          1.08187341e+03, 8.06380798e+02 ]
      - [ 1.82638086e+03, 2.94351709e+03, 0., 8.06380798e+02, 10200., 0.,
          0., 0., 0., 3.60624451e+02, 1.14039465e+03, 2.41914233e+03,
          6.92638086e+03, 0., 3.36266260e+03, 2.41914233e+03,
          6.92638086e+03, 3.60624451e+02, 0., 0., 0., 0., 0., 0., 0., 0.,
          0., 0., 0., 0., 3.60624451e+02, 8.06380798e+02, 8.06380798e+02,
          1.50101904e+03, 0., 0., 3.44663789e+04, 0., 3.60624451e+02, 0.,
          1.61276160e+03, 1.02145273e+04, 1.14039465e+03, 0.,
          2.01863809e+04, 0., 1.44249780e+03, 8.06380798e+02,
          1.98765703e+04, 2.74469863e+04, 0., 0., 0., 0., 3.00203809e+03,
          1.61276160e+03, 2.73129512e+04, 2.37822207e+04, 0.,
          1.61276160e+03, 7.94638086e+03, 0., 1.08187341e+03, 0. ]
      - [ 2.84638086e+03, 3.30414136e+03, 1.14039465e+03, 8.06380798e+02,
          4080., 0., 0., 0., 0., 0., 0., 0., 0., 0., 0., 0.,
          3.86638086e+03, 3.60624451e+02, 0., 0., 0., 0., 0., 0., 0., 0.,
          0., 0., 6.92638086e+03, 0., 1.80312231e+03, 1.61276160e+03, 0.,
          0., 0., 0., 2.73263809e+04, 0., 1.44249780e+03, 8.06380798e+02,
          4080., 3.60624451e+02, 0., 0., 510., 0., 3.60624451e+02, 0.,
          2.20820938e+04, 2.50396582e+04, 0., 0., 0., 0., 0., 0.,
          2.39084727e+04, 3.41137891e+04, 1.14039465e+03, 8.06380798e+02,
          1.84427617e+04, 0., 1.08187341e+03, 8.06380798e+02 ]
      - [ 0., 7.21248901e+02, 2.28078931e+03, 1.61276160e+03, 8160., 0.,
          0., 0., 0., 0., 0., 0., 0., 0., 0., 0., 1.58446660e+04,
          1.04486123e+04, 0., 8.06380798e+02, 2040., 0., 0., 0., 0.,
          7.21248901e+02, 2.28078931e+03, 1.61276160e+03, 1.58927617e+04,
          0., 2.88499561e+03, 1.61276160e+03, 0., 7.21248901e+02,
          2.28078931e+03, 1.61276160e+03, 2.52863809e+04, 0.,
          1.44249780e+03, 8.06380798e+02, 2040., 0., 0., 0., 0., 0., 0.,
          0., 4.54190381e+03, 2.19300742e+04, 0., 0., 0., 0., 0., 0.,
          1.61757119e+04, 4.26517344e+04, 0., 8.06380798e+02,
          1.48727617e+04, 0., 3.60624451e+02, 8.06380798e+02 ]
      - [ 2.84638086e+03, 1.44249780e+03, 0., 8.06380798e+02, 10200., 0.,
          0., 0., 0., 0., 0., 0., 5100., 0., 1.08187341e+03,
          8.06380798e+02, 6.92638086e+03, 3.60624451e+02, 0., 0., 0., 0.,
          0., 0., 0., 0., 0., 0., 5.90638086e+03, 0., 7.21248901e+02,
          8.06380798e+02, 0., 0., 0., 0., 2.52863809e+04, 0.,
          1.44249780e+03, 8.06380798e+02, 2.84638086e+03, 1.50101904e+03,
          0., 0., 8.96638086e+03, 0., 3.60624451e+02, 0., 1.92010469e+04,
          2.32460332e+04, 0., 0., 0., 0., 0., 0., 2.59965703e+04,
          2.80511934e+04, 0., 8.06380798e+02, 1.07927617e+04, 0.,
          1.08187341e+03, 8.06380798e+02 ]
      - [ 0., 3.60624451e+02, 0., 0., 0., 0., 0., 0., 0., 0., 0., 0., 0.,
          0., 0., 0., 1.83119043e+04, 2.01269512e+04, 0., 0.,
          8.06380798e+02, 0., 7.50509570e+03, 5.64466553e+03,
          1.64855234e+04, 8.10930176e+03, 0., 0., 6.07190381e+03,
          1.14039465e+03, 1.03315703e+04, 5.64466553e+03, 0.,
          2.16374683e+03, 4.56157861e+03, 3.22552319e+03, 4.88638086e+03,
          0., 7.21248901e+02, 0., 1020., 2.52437109e+03, 2.28078931e+03,
          8.06380798e+02, 2550., 0., 0., 0., 1.23227617e+04,
          6.66680420e+03, 1.14039465e+03, 2.41914233e+03, 1.30463809e+04,
          2.28078931e+03, 1.26803779e+04, 8.06380798e+02, 1.42319043e+04,
          2.30119473e+04, 2.28078931e+03, 4.03190405e+03, 7140.,
          1.14039465e+03, 1.20761709e+04, 2.41914233e+03 ]
      - [ 0., 7.21248926e+03, 0., 0., 0., 0., 0., 0., 0., 0., 0., 0., 0.,
          0., 0., 0., 2.40046660e+04, 1.37527539e+04, 0., 8.06380798e+02,
          0., 0., 8.46992676e+03, 4.03190405e+03, 2.26882852e+04,
          1.03900908e+04, 0., 8.06380798e+02, 8.06380798e+02,
          1.14039465e+03, 1.68813320e+04, 4.03190405e+03, 0.,
          5.40936719e+03, 4.56157861e+03, 3.22552319e+03, 4.16276172e+03,
          0., 7.21248901e+02, 8.06380798e+02, 1.31638086e+03,
          9.43475781e+03, 3.42118408e+03, 2.41914233e+03, 1530., 0.,
          3.60624451e+02, 0., 1.84427617e+04, 4.44453613e+03,
          3.42118408e+03, 2.41914233e+03, 9.55914258e+03, 4.56157861e+03,
          1.27974199e+04, 2.41914233e+03, 1.78846660e+04, 1.51952520e+04,
          1.14039465e+03, 4.03190405e+03, 9.77276172e+03, 1.14039465e+03,
          9.91242383e+03, 2.41914233e+03 ]
      - [ 8.06380798e+02, 3.30414136e+03, 1.14039465e+03, 8.06380798e+02,
          0., 0., 0., 0., 0., 0., 0., 0., 0., 0., 0., 0., 3.42527617e+04,
          3.00203809e+03, 0., 0., 8.06380798e+02, 0., 3.30414136e+03,
          1.61276160e+03, 9.04914258e+03, 4.86368164e+03, 0., 0.,
          8.06380798e+02, 1.14039465e+03, 6.30617969e+03, 2.41914233e+03,
          1.61276160e+03, 2.52437134e+03, 0., 1.61276160e+03,
          1.30463809e+04, 0., 1.44249780e+03, 8.06380798e+02,
          2.84638086e+03, 2.88499561e+03, 1.14039465e+03, 1.61276160e+03,
          10200., 0., 0., 0., 1.05791426e+04, 4.80516064e+03,
          2.28078931e+03, 2.41914233e+03, 2.15855234e+04, 3.42118408e+03,
          1.09942979e+04, 3.22552319e+03, 2.96146660e+04, 1.42984395e+04,
          1.14039465e+03, 3.22552319e+03, 2.07791426e+04, 1.14039465e+03,
          9.19117578e+03, 4.03190405e+03 ]
      - [ 4.45914258e+03, 4.32749365e+03, 0., 2.41914233e+03, 0., 0., 0.,
          0., 0., 0., 0., 0., 0., 0., 0., 0., 3.42527617e+04,
          3.00203809e+03, 0., 0., 0., 0., 7.21248901e+02, 1.61276160e+03,
          8.75276172e+03, 7.21248901e+02, 0., 0., 1.61276160e+03,
          1.14039465e+03, 7.74867773e+03, 3.22552319e+03, 0.,
          3.60624463e+03, 2.28078931e+03, 1.61276160e+03, 1.50863809e+04,
          0., 1.44249780e+03, 8.06380798e+02, 3.22552319e+03,
          7.63163477e+03, 1.14039465e+03, 3.22552319e+03, 10200., 0., 0.,
          0., 1.42319043e+04, 9.07413281e+03, 1.14039465e+03,
          4.03190405e+03, 2.48591426e+04, 1.14039465e+03, 1.73589980e+04,
          5.64466553e+03, 3.19510469e+04, 1.84993926e+04, 4.56157861e+03,
          4.83828467e+03, 2.07310469e+04, 4.56157861e+03, 7.21248926e+03,
          3.22552319e+03 ]
      - [ 0., 4.68811816e+03, 1.14039465e+03, 8.06380798e+02, 0., 0., 0.,
          0., 0., 0., 0., 0., 0., 0., 0., 0., 2.44319043e+04,
          1.65207070e+04, 2.28078931e+03, 3.22552319e+03, 2.41914233e+03,
          1.14039465e+03, 5.16578516e+03, 3.22552319e+03, 1.60582852e+04,
          1.62771250e+04, 1.14039465e+03, 8.06380798e+02, 4.45914258e+03,
          3.42118408e+03, 1.27974199e+04, 2.41914233e+03, 0.,
          1.44249780e+03, 4.56157861e+03, 3.22552319e+03, 1.91663809e+04,
          0., 1.44249780e+03, 8.06380798e+02, 8.06380798e+02,
          2.88499561e+03, 4.56157861e+03, 4.03190405e+03, 12240., 0., 0.,
          0., 4.45914258e+03, 9.55179980e+03, 2.28078931e+03,
          1.61276160e+03, 2.15855234e+04, 4.56157861e+03, 1.31580449e+04,
          2.41914233e+03, 8.53914258e+03, 1.67642891e+04, 6.84236816e+03,
          4.83828467e+03, 1.87391426e+04, 3.42118408e+03, 9.91242383e+03,
          2.41914233e+03 ]
      - [ 8.06380798e+02, 8.71350879e+03, 0., 0., 0., 0., 0., 0., 0., 0.,
          0., 0., 0., 0., 0., 0., 3.01727617e+04, 5.88703418e+03, 0., 0.,
          8.06380798e+02, 0., 4.38601465e+03, 1.61276160e+03,
          1.99727617e+04, 5.88703418e+03, 0., 0., 2.41914233e+03, 0.,
          1.03315703e+04, 5.64466553e+03, 0., 3.60624451e+02,
          1.14039465e+03, 8.06380798e+02, 1.71263809e+04, 1.14039465e+03,
          1.80312231e+03, 0., 2040., 3.60624463e+03, 2.28078931e+03,
          1.61276160e+03, 12240., 0., 0., 0., 1.30463809e+04,
          6.91038623e+03, 3.42118408e+03, 2.41914233e+03, 2.20127617e+04,
          2.28078931e+03, 1.53217910e+04, 2.41914233e+03, 1.46591426e+04,
          1.74855371e+04, 4.56157861e+03, 3.22552319e+03, 2.28191426e+04,
          3.42118408e+03, 4.02539038e+03, 8.06380798e+02 ]
      - [ 8.06380798e+02, 2.16374683e+03, 2.28078931e+03, 1.61276160e+03,
          510., 0., 0., 0., 0., 0., 0., 0., 0., 0., 0., 0.,
          2.89391426e+04, 4.08391162e+03, 0., 8.06380798e+02,
          2.84638086e+03, 0., 6.30617969e+03, 2.41914233e+03,
          1.84427617e+04, 8.41140527e+03, 1.14039465e+03, 8.06380798e+02,
          3.22552319e+03, 1.14039465e+03, 6.96890723e+03, 2.41914233e+03,
          510., 1.80312231e+03, 2.28078931e+03, 2.41914233e+03,
          8.96638086e+03, 1.14039465e+03, 3.30414136e+03, 8.06380798e+02,
          8.06380798e+02, 2.16374683e+03, 1.14039465e+03, 1.61276160e+03,
          12240., 0., 0., 0., 7.43638086e+03, 5.94555518e+03,
          3.42118408e+03, 1.61276160e+03, 1.61891426e+04, 3.42118408e+03,
          6.96890723e+03, 3.22552319e+03, 8.53914258e+03, 1.02145273e+04,
          0., 1.61276160e+03, 2.22263809e+04, 0., 4.44453613e+03,
          8.06380798e+02 ]
      - [ 0., 1.80312231e+03, 0., 0., 0., 0., 0., 0., 0., 0., 0., 0., 0.,
          0., 0., 0., 3.66719023e+04, 7.02742871e+03, 0., 1.61276160e+03,
          0., 0., 7.21248901e+02, 1.61276160e+03, 8.75276172e+03,
          7.21248901e+02, 0., 0., 1.61276160e+03, 0., 8.83055078e+03,
          4.03190405e+03, 0., 3.60624463e+03, 3.42118408e+03,
          2.41914233e+03, 1.30463809e+04, 0., 1.44249780e+03,
          8.06380798e+02, 2.84638086e+03, 1.44249780e+03, 0.,
          8.06380798e+02, 0., 0., 0., 0., 1.42319043e+04, 7.93373828e+03,
          1.14039465e+03, 4.83828467e+03, 2.11582852e+04, 5.70197314e+03,
          1.73004766e+04, 4.03190405e+03, 3.31846641e+04, 1.95227461e+04,
          7.98276270e+03, 7.25742725e+03, 3.38255234e+04, 3.42118408e+03,
          8.41140527e+03, 2.41914233e+03 ]
      - [ 1.61276160e+03, 2.88499561e+03, 0., 1.61276160e+03, 0., 0., 0.,
          0., 0., 0., 0., 0., 0., 0., 0., 0., 3.59963789e+04,
          2.52437134e+03, 0., 1.61276160e+03, 1.61276160e+03, 0.,
          2.88499561e+03, 1.61276160e+03, 1.96763809e+04, 2.52437134e+03,
          0., 1.61276160e+03, 2.41914233e+03, 1.14039465e+03,
          6.18913721e+03, 2.41914233e+03, 8.06380798e+02, 1.44249780e+03,
          1.14039465e+03, 1.61276160e+03, 1.38527617e+04, 1.14039465e+03,
          1.80312231e+03, 8.06380798e+02, 8.06380798e+02, 1.80312231e+03,
          2.28078931e+03, 2.41914233e+03, 8160., 0., 0., 0.,
          1.42319043e+04, 6.85186475e+03, 0., 3.22552319e+03,
          2.49419043e+04, 1.14039465e+03, 9.07413281e+03, 4.03190405e+03,
          2.40046660e+04, 1.15985039e+04, 1.14039465e+03, 4.83828467e+03,
          2.94491426e+04, 0., 4.32749365e+03, 2.41914233e+03 ]
      - [ 0., 4.68811816e+03, 1.14039465e+03, 8.06380798e+02, 0., 0., 0.,
          0., 0., 0., 0., 0., 0., 0., 0., 0., 1.40182852e+04,
          1.91621211e+04, 0., 8.06380798e+02, 1020., 0., 1.14719648e+04,
          5.64466553e+03, 1.80982852e+04, 1.21932139e+04, 0.,
          2.41914233e+03, 4.45914258e+03, 3.42118408e+03, 1.48346270e+04,
          4.83828467e+03, 0., 3.60624463e+03, 5.70197314e+03,
          4.03190405e+03, 6.20276172e+03, 0., 7.21248901e+02, 0., 1020.,
          7.57311377e+03, 4.56157861e+03, 3.22552319e+03, 2550., 0., 0.,
          0., 1.43627617e+04, 7.74867725e+03, 3.42118408e+03,
          8.06380798e+02, 1.87391426e+04, 4.56157861e+03, 1.32750869e+04,
          4.03190405e+03, 1.17646660e+04, 1.88014961e+04, 2.28078931e+03,
          3.22552319e+03, 1.58927617e+04, 1.14039465e+03, 1.27974199e+04,
          2.41914233e+03 ]
      - [ 2.84638086e+03, 6.54976172e+03, 3.42118408e+03, 2.41914233e+03,
          1.82638086e+03, 0., 1.50101904e+03, 8.06380798e+02,
          8.06380798e+02, 5.10726367e+03, 0., 0., 0., 0., 0., 0.,
          1.46591426e+04, 8.77202930e+03, 1.14039465e+03, 1.61276160e+03,
          0., 0., 7.44657422e+03, 3.22552319e+03, 7.73276172e+03,
          2.64141382e+03, 0., 0., 2.41914233e+03, 2.28078931e+03,
          2.42108633e+04, 6.45104639e+03, 0., 3.60624451e+02, 0.,
          8.06380798e+02, 7.51914258e+03, 3.42118408e+03, 9.79538184e+03,
          8.06380798e+02, 0., 3.60624451e+02, 1.14039465e+03, 0., 2040.,
          1.14039465e+03, 8.35288379e+03, 8.06380798e+02, 1.72091426e+04,
          9.55179980e+03, 1.14039465e+03, 8.06380798e+02, 6.07190381e+03,
          5.70197314e+03, 2.87234180e+04, 4.03190405e+03, 2.49419043e+04,
          1.82653086e+04, 3.42118408e+03, 4.83828467e+03, 1.38046660e+04,
          6.84236816e+03, 1.09942979e+04, 2.41914233e+03 ]
      - [ 4.45914258e+03, 9.91242383e+03, 5.70197314e+03, 3.22552319e+03,
          510., 0., 1.50101904e+03, 8.06380798e+02, 3.65276172e+03,
          6.96890723e+03, 1.14039465e+03, 0., 510., 0., 0., 0.,
          8.53914258e+03, 1.78461621e+04, 0., 0., 8.06380798e+02,
          1.14039465e+03, 1.49026455e+04, 1.61276160e+03, 1.05791426e+04,
          7.74867773e+03, 0., 0., 6.07190381e+03, 5.70197314e+03,
          2.66767129e+04, 4.83828467e+03, 6120., 3.60624451e+02, 0.,
          8.06380798e+02, 1.44455234e+04, 3.42118408e+03, 9.91242383e+03,
          2.41914233e+03, 2.84638086e+03, 1.86164355e+03, 2.28078931e+03,
          8.06380798e+02, 4.67276172e+03, 3.42118408e+03, 6.18913721e+03,
          8.06380798e+02, 7.30552344e+03, 1.64621855e+04, 4.56157861e+03,
          2.41914233e+03, 9.51104688e+03, 1.02635518e+04, 2.51756934e+04,
          4.03190405e+03, 6.87828467e+03, 2.44544453e+04, 7.98276270e+03,
          5.64466553e+03, 1.69955234e+04, 3.42118408e+03, 1.88109941e+04,
          8.06380798e+02 ]
      - [ 1.61276160e+03, 7.69015625e+03, 3.42118408e+03, 2.41914233e+03,
          2040., 0., 0., 0., 1.61276160e+03, 4.08391162e+03,
          1.14039465e+03, 8.06380798e+02, 0., 0., 0., 0., 8.53914258e+03,
          1.67057676e+04, 1.14039465e+03, 0., 1.31638086e+03,
          1.14039465e+03, 1.05166309e+04, 8.06380798e+02, 1.26191426e+04,
          5.22430615e+03, 0., 0., 5.26552344e+03, 4.56157861e+03,
          2.58384219e+04, 3.22552319e+03, 0., 3.60624451e+02, 0.,
          8.06380798e+02, 1.47419043e+04, 4.56157861e+03, 5.88703369e+03,
          2.41914233e+03, 0., 3.60624451e+02, 2.28078931e+03,
          8.06380798e+02, 7.43638086e+03, 2.28078931e+03, 4.44453613e+03,
          2.41914233e+03, 9.34552344e+03, 1.57409375e+04, 2.28078931e+03,
          8.06380798e+02, 1.76710469e+04, 7.98276270e+03, 2.42203594e+04,
          8.06380798e+02, 1.46591426e+04, 1.92301387e+04, 1.02635518e+04,
          5.64466553e+03, 1.94146660e+04, 6.84236816e+03, 1.41228750e+04,
          8.06380798e+02 ]
      - [ 1.61276160e+03, 5.88703369e+03, 4.56157861e+03, 3.22552319e+03,
          0., 0., 0., 0., 8.06380798e+02, 1.44249780e+03, 0.,
          8.06380798e+02, 0., 0., 0., 0., 2.20127617e+04, 1.45420215e+04,
          0., 0., 3.22552319e+03, 3.42118408e+03, 5.46788818e+03,
          1.61276160e+03, 1.50863809e+04, 9.07413281e+03, 1.14039465e+03,
          8.06380798e+02, 6.07190381e+03, 4.56157861e+03, 1.60430400e+04,
          3.22552319e+03, 0., 3.60624451e+02, 1.14039465e+03,
          8.06380798e+02, 1.42319043e+04, 5.70197314e+03, 4.74663916e+03,
          8.06380798e+02, 2040., 7.21248901e+02, 2.28078931e+03,
          1.61276160e+03, 8.53914258e+03, 2.28078931e+03, 2.16374683e+03,
          8.06380798e+02, 6.87828467e+03, 1.21932139e+04, 5.70197314e+03,
          4.83828467e+03, 1.50382852e+04, 5.70197314e+03, 1.64621855e+04,
          4.03190405e+03, 1.95455234e+04, 2.00684297e+04, 3.42118408e+03,
          2.41914233e+03, 2.64719043e+04, 4.56157861e+03, 1.17740674e+04,
          4.03190405e+03 ]
      - [ 0., 6.49124023e+03, 3.42118408e+03, 2.41914233e+03, 9690., 0.,
          0., 0., 0., 1.80312231e+03, 1.14039465e+03, 8.06380798e+02,
          4080., 0., 0., 0., 2040., 5.40936719e+03, 2.28078931e+03,
          1.61276160e+03, 6.58190381e+03, 5.70197314e+03, 1.78461621e+04,
          2.41914233e+03, 6.49914258e+03, 9.91242383e+03, 3.42118408e+03,
          2.41914233e+03, 1.42319043e+04, 5.70197314e+03, 1.76705996e+04,
          0., 0., 0., 0., 0., 1.50382852e+04, 6.84236816e+03,
          5.04874219e+03, 0., 0., 0., 0., 0., 9.77276172e+03,
          2.28078931e+03, 7.21248901e+02, 0., 1.13855234e+04,
          7.32953174e+03, 4.56157861e+03, 4.83828467e+03, 2.52382852e+04,
          5.70197314e+03, 1.79046836e+04, 4.03190405e+03, 1.35082852e+04,
          1.53803125e+04, 7.98276270e+03, 6.45104639e+03, 2.84638086e+04,
          1.02635518e+04, 1.06336729e+04, 3.22552319e+03 ]
      - [ 8.53914258e+03, 6.91038623e+03, 3.42118408e+03, 4.03190405e+03,
          2040., 0., 0., 0., 2.84638086e+03, 1.80312231e+03,
          1.14039465e+03, 1.61276160e+03, 0., 0., 0., 0., 2.34119043e+04,
          9.24969629e+03, 1.14039465e+03, 1.61276160e+03, 1.61276160e+03,
          2.28078931e+03, 6.60828271e+03, 1.61276160e+03, 1.66991426e+04,
          4.44453613e+03, 0., 8.06380798e+02, 8.27742676e+03,
          2.28078931e+03, 1.67642891e+04, 8.06380811e+03, 2040., 0., 0.,
          0., 1.87391426e+04, 2.28078931e+03, 8.16782324e+03,
          4.03190405e+03, 4080., 3.60624451e+02, 1.14039465e+03,
          8.06380798e+02, 1.26191426e+04, 2.28078931e+03, 2.16374683e+03,
          8.06380798e+02, 1.34255234e+04, 1.02145273e+04, 4.56157861e+03,
          4.83828467e+03, 1.75055234e+04, 4.56157861e+03, 1.17155469e+04,
          2.41914233e+03, 2.88910469e+04, 1.80217266e+04, 5.70197314e+03,
          5.64466553e+03, 2.23919043e+04, 4.56157861e+03, 5.88703369e+03,
          2.41914233e+03 ]
      - [ 8.06380798e+02, 7.27101074e+03, 4.56157861e+03, 3.22552319e+03,
          4080., 0., 0., 0., 0., 1.80312231e+03, 1.14039465e+03,
          8.06380798e+02, 2040., 0., 0., 0., 14280., 1.00974854e+04, 0.,
          0., 7.30552344e+03, 4.56157861e+03, 1.61015615e+04,
          3.22552319e+03, 7.30552344e+03, 1.14134434e+04, 3.42118408e+03,
          2.41914233e+03, 1.26191426e+04, 3.42118408e+03, 1.70078711e+04,
          8.06380798e+02, 0., 3.60624451e+02, 1.14039465e+03,
          8.06380798e+02, 1.05791426e+04, 3.42118408e+03, 9.79538184e+03,
          8.06380798e+02, 0., 0., 0., 0., 1.10063809e+04, 1.14039465e+03,
          1.80312231e+03, 0., 8.11190381e+03, 1.28559414e+04,
          3.42118408e+03, 3.22552319e+03, 1.58927617e+04, 2.28078931e+03,
          1.97663281e+04, 4.03190405e+03, 1.66510469e+04, 2.10237637e+04,
          5.70197314e+03, 4.03190405e+03, 1.83119043e+04, 5.70197314e+03,
          1.36357109e+04, 4.03190405e+03 ]
      - [ 6.07190381e+03, 7.80719873e+03, 1.14039465e+03, 1.61276160e+03,
          4080., 0., 0., 0., 8.06380798e+02, 4.68811816e+03,
          1.14039465e+03, 1.61276160e+03, 0., 0., 0., 0., 2.07791426e+04,
          6.54976172e+03, 3.42118408e+03, 4.03190405e+03, 4.03190405e+03,
          3.42118408e+03, 9.91242383e+03, 4.03190405e+03, 1.05791426e+04,
          7.32953174e+03, 1.14039465e+03, 1.61276160e+03, 8.91828516e+03,
          3.42118408e+03, 1.71249141e+04, 4.83828467e+03, 0.,
          3.60624451e+02, 1.14039465e+03, 8.06380798e+02, 1.66991426e+04,
          2.28078931e+03, 1.10528193e+04, 4.03190405e+03, 0.,
          3.60624451e+02, 1.14039465e+03, 8.06380798e+02, 1.38527617e+04,
          1.14039465e+03, 4.74663916e+03, 1.61276160e+03, 1.39355234e+04,
          1.44835000e+04, 4.56157861e+03, 5.64466553e+03, 2.07310469e+04,
          6.84236816e+03, 1.08772549e+04, 2.41914233e+03, 2.49419043e+04,
          2.04290547e+04, 3.42118408e+03, 4.03190405e+03, 3.01246660e+04,
          5.70197314e+03, 9.43475684e+03, 1.61276160e+03 ]
      - [ 4.45914258e+03, 9.19117578e+03, 1.14039465e+03, 8.06380798e+02,
          2040., 0., 0., 0., 1.61276160e+03, 4.44453613e+03, 0., 0., 0.,
          0., 0., 0., 1.91663809e+04, 1.30410020e+04, 0., 0.,
          1.61276160e+03, 1.14039465e+03, 7.74867773e+03, 3.22552319e+03,
          1.18127617e+04, 7.32953174e+03, 0., 0., 4.03190405e+03,
          4.56157861e+03, 1.60430400e+04, 3.22552319e+03, 0., 0., 0., 0.,
          1.91663809e+04, 1.14039465e+03, 1.06921943e+04, 3.22552319e+03,
          0., 3.24562012e+03, 1.14039465e+03, 8.06380798e+02,
          8.96638086e+03, 1.14039465e+03, 9.07413281e+03, 8.06380798e+02,
          1.58927617e+04, 1.37622510e+04, 2.28078931e+03, 2.41914233e+03,
          2.03519043e+04, 5.70197314e+03, 1.64621855e+04, 3.22552319e+03,
          1.46110469e+04, 2.31289902e+04, 7.98276270e+03, 6.45104639e+03,
          1.78846660e+04, 6.84236816e+03, 6.49124023e+03, 8.06380798e+02 ]
      - [ 4.45914258e+03, 1.17155469e+04, 0., 0., 0., 0., 0., 0.,
          2.84638086e+03, 2.94351709e+03, 0., 0., 0., 0., 0., 0.,
          2.36255234e+04, 1.10528193e+04, 0., 0., 0., 0., 8.88907227e+03,
          3.22552319e+03, 1.66991426e+04, 5.22430615e+03, 0., 0.,
          1.61276160e+03, 2.28078931e+03, 1.84408711e+04, 5.64466553e+03,
          2040., 3.60624451e+02, 1.14039465e+03, 8.06380798e+02,
          1.30463809e+04, 1.14039465e+03, 1.20761709e+04, 2.41914233e+03,
          2040., 3.60624451e+02, 1.14039465e+03, 8.06380798e+02,
          1.30463809e+04, 1.14039465e+03, 3.30414136e+03, 8.06380798e+02,
          2.20127617e+04, 1.05166309e+04, 3.42118408e+03, 3.22552319e+03,
          1.66510469e+04, 7.98276270e+03, 1.14134434e+04, 4.03190405e+03,
          2.31982852e+04, 2.77585859e+04, 2.28078931e+03, 1.61276160e+03,
          1.95455234e+04, 4.56157861e+03, 7.27101074e+03, 8.06380798e+02 ]
      - [ 1020., 1.08187341e+03, 0., 8.06380798e+02, 17340., 0., 0., 0.,
          0., 0., 0., 0., 1.56791426e+04, 2.28078931e+03, 1.80312231e+03,
          0., 4.37638086e+03, 2.88499561e+03, 1.14039465e+03,
          1.61276160e+03, 22950., 0., 0., 0., 0., 0., 0., 0.,
          2.00555234e+04, 4.56157861e+03, 5.46788818e+03, 8.06380798e+02,
          0., 0., 0., 0., 1.66991426e+04, 3.42118408e+03, 9.79538184e+03,
          8.06380798e+02, 0., 0., 0., 0., 1.10063809e+04, 1.14039465e+03,
          1.80312231e+03, 0., 5.26552344e+03, 1.42399180e+04,
          3.42118408e+03, 3.22552319e+03, 18360., 0., 1.31580449e+04,
          2.41914233e+03, 1.54655234e+04, 2.07896797e+04, 5.70197314e+03,
          4.03190405e+03, 2.48591426e+04, 2.28078931e+03, 9.55179980e+03,
          3.22552319e+03 ]
      - [ 2.92914233e+03, 8.41140527e+03, 4.56157861e+03, 3.22552319e+03,
          0., 0., 0., 0., 0., 5.40936719e+03, 3.42118408e+03,
          2.41914233e+03, 2.84638086e+03, 0., 0., 8.06380798e+02,
          1.31638086e+03, 3.30414136e+03, 0., 0., 6.49914258e+03,
          3.42118408e+03, 1.08187329e+03, 0., 0., 3.60624451e+02, 0., 0.,
          7.00914258e+03, 3.42118408e+03, 4.74663916e+03, 8.06380798e+02,
          0., 3.60624451e+02, 1.14039465e+03, 8.06380798e+02,
          1.46591426e+04, 3.42118408e+03, 6.91038623e+03, 8.06380798e+02,
          8160., 0., 0., 0., 8.53914258e+03, 2.28078931e+03,
          5.16578516e+03, 2.41914233e+03, 1.87391426e+04, 1.49611670e+04,
          5.70197314e+03, 3.22552319e+03, 1.04482852e+04, 5.70197314e+03,
          1.52047490e+04, 1.61276160e+03, 1.95455234e+04, 2.22321777e+04,
          6.84236816e+03, 4.03190405e+03, 1.68646660e+04, 6.84236816e+03,
          9.61032129e+03, 4.03190405e+03 ]
      - [ 2.84638086e+03, 9.43475781e+03, 2.28078931e+03, 1.61276160e+03,
          0., 0., 0., 0., 8.06380798e+02, 1.86164355e+03, 0., 0., 0., 0.,
          0., 0., 6.92638086e+03, 3.30414136e+03, 1.14039465e+03,
          8.06380798e+02, 8.06380798e+02, 1.14039465e+03, 9.13265430e+03,
          1.61276160e+03, 3.65276172e+03, 2.58289258e+03, 0.,
          8.06380798e+02, 8.11190381e+03, 3.42118408e+03, 9.85390332e+03,
          3.22552319e+03, 0., 3.60624451e+02, 1.14039465e+03,
          8.06380798e+02, 1.46591426e+04, 3.42118408e+03, 1.26803779e+04,
          8.06380798e+02, 8.06380798e+02, 1.80312231e+03, 2.28078931e+03,
          2.41914233e+03, 6.49914258e+03, 3.42118408e+03, 5.40936719e+03,
          0., 2.03519043e+04, 1.72419551e+04, 7.98276270e+03,
          5.64466553e+03, 1.01519043e+04, 5.70197314e+03, 1.35771904e+04,
          3.22552319e+03, 2.60446660e+04, 2.20471172e+04, 3.42118408e+03,
          2.41914233e+03, 2.48591426e+04, 3.42118408e+03, 1.42399180e+04,
          2.41914233e+03 ]
      - [ 8.06380798e+02, 9.37623633e+03, 3.42118408e+03, 2.41914233e+03,
          5100., 0., 0., 0., 0., 3.60624463e+03, 3.42118408e+03,
          1.61276160e+03, 6630., 0., 0., 0., 1020., 3.30414136e+03,
          1.14039465e+03, 1.61276160e+03, 1.13855234e+04, 4.56157861e+03,
          1.44249780e+03, 0., 0., 1.80312231e+03, 0., 0., 2.02691426e+04,
          1.14039465e+03, 3.30414136e+03, 0., 0., 7.21248901e+02,
          2.28078931e+03, 1.61276160e+03, 1.01519043e+04, 5.70197314e+03,
          7.74867725e+03, 2.41914233e+03, 2040., 0., 0., 0.,
          6.49914258e+03, 3.42118408e+03, 4.02539038e+03, 8.06380798e+02,
          6.58190381e+03, 1.83823516e+04, 6.84236816e+03, 3.22552319e+03,
          1.32119043e+04, 4.56157861e+03, 9.19117578e+03, 2.41914233e+03,
          1.78846660e+04, 2.27098438e+04, 6.84236816e+03, 4.03190405e+03,
          1.62719043e+04, 5.70197314e+03, 1.48346270e+04, 5.64466553e+03 ]
      - [ 1020., 3.60624463e+03, 1.14039465e+03, 3.22552319e+03, 2040.,
          0., 0., 0., 510., 1.80312231e+03, 0., 2.41914233e+03,
          4.67276172e+03, 0., 3.60624451e+02, 8.06380798e+02, 1530.,
          2.88499561e+03, 0., 8.06380798e+02, 8.24276172e+03,
          3.42118408e+03, 4.74663916e+03, 1.61276160e+03, 2040.,
          3.60624451e+02, 0., 8.06380798e+02, 8.62190430e+03,
          5.70197314e+03, 4.38601465e+03, 8.06380798e+02, 8.06380798e+02,
          2.58289258e+03, 4.56157861e+03, 2.41914233e+03, 7.00914258e+03,
          3.42118408e+03, 7.02742871e+03, 2.41914233e+03, 3.65276172e+03,
          3.36266260e+03, 2.28078931e+03, 8.06380798e+02, 2.92914233e+03,
          3.42118408e+03, 6.91038623e+03, 8.06380798e+02, 1.05791426e+04,
          2.68617734e+04, 3.42118408e+03, 8.06380798e+02, 9.85552344e+03,
          3.42118408e+03, 1.13549219e+04, 3.22552319e+03, 1.21919043e+04,
          2.62575684e+04, 3.42118408e+03, 1.61276160e+03, 1.78019043e+04,
          3.42118408e+03, 1.01560059e+04, 8.06380798e+02 ]
      - [ 1020., 3.60624463e+03, 1.14039465e+03, 2.41914233e+03, 2040.,
          0., 0., 0., 0., 7.21248901e+02, 0., 2.41914233e+03,
          3.86638086e+03, 0., 3.60624451e+02, 0., 510., 5.04874268e+03,
          1.14039465e+03, 1.61276160e+03, 6.92638086e+03, 1.14039465e+03,
          1.01560059e+04, 1.61276160e+03, 0., 7.21248901e+02, 0.,
          8.06380798e+02, 1.24882852e+04, 5.70197314e+03, 5.04874219e+03,
          8.06380798e+02, 0., 7.21248901e+02, 2.28078931e+03,
          1.61276160e+03, 1.10063809e+04, 1.14039465e+03, 7.69015625e+03,
          1.61276160e+03, 2040., 0., 0., 0., 8.53914258e+03,
          2.28078931e+03, 2.16374683e+03, 8.06380798e+02, 1.34255234e+04,
          1.68228105e+04, 5.70197314e+03, 2.41914233e+03, 1.44455234e+04,
          4.56157861e+03, 1.20761709e+04, 2.41914233e+03, 1.25710469e+04,
          2.63746094e+04, 6.84236816e+03, 2.41914233e+03, 1.82291426e+04,
          3.42118408e+03, 9.91242383e+03, 2.41914233e+03 ]
      - [ 2.84638086e+03, 4.02539038e+03, 3.42118408e+03, 2.41914233e+03,
          4080., 0., 0., 0., 0., 3.60624451e+02, 2.28078931e+03,
          8.06380798e+02, 6120., 0., 1.08187341e+03, 8.06380798e+02,
          4.67276172e+03, 3.66476587e+03, 1.14039465e+03, 8.06380798e+02,
          7.73276172e+03, 2.28078931e+03, 7.21248901e+02, 0., 0.,
          3.60624451e+02, 0., 8.06380798e+02, 9.34552344e+03,
          3.42118408e+03, 4.74663916e+03, 1.61276160e+03, 0., 0., 0., 0.,
          1.66991426e+04, 3.42118408e+03, 9.79538184e+03, 8.06380798e+02,
          0., 0., 0., 0., 7.73276172e+03, 2.28078931e+03, 7.21248901e+02,
          0., 1.28327617e+04, 1.53217910e+04, 3.42118408e+03,
          2.41914233e+03, 1.79327617e+04, 1.14039465e+03, 1.07507158e+04,
          4.83828467e+03, 1.99246660e+04, 2.34310938e+04, 4.56157861e+03,
          4.03190405e+03, 2.07791426e+04, 3.42118408e+03, 1.53217910e+04,
          1.61276160e+03 ]
      - [ 8.06380798e+02, 1.44249780e+03, 0., 8.06380798e+02, 10200., 0.,
          0., 0., 0., 0., 0., 0., 8.96638086e+03, 0., 4.44453613e+03,
          2.41914233e+03, 6.20276172e+03, 1.80312231e+03, 0.,
          2.41914233e+03, 9180., 0., 0., 0., 0., 0., 0., 0.,
          7.73276172e+03, 1.14039465e+03, 6.24765820e+03, 2.41914233e+03,
          0., 0., 0., 0., 1.71263809e+04, 1.14039465e+03, 1.19591289e+04,
          8.06380798e+02, 2040., 0., 0., 0., 1.30463809e+04,
          1.14039465e+03, 4.68811816e+03, 0., 6.87828467e+03,
          1.62186035e+04, 4.56157861e+03, 3.22552319e+03, 20400., 0.,
          1.18911104e+04, 4.83828467e+03, 1.83119043e+04, 1.86844531e+04,
          3.42118408e+03, 2.41914233e+03, 3.09791426e+04, 2.28078931e+03,
          6.66680420e+03, 3.22552319e+03 ]
      - [ 2.41914233e+03, 8.77202930e+03, 4.56157861e+03, 4.03190405e+03,
          2040., 0., 0., 0., 8.06380798e+02, 3.66476587e+03,
          2.28078931e+03, 1.61276160e+03, 0., 0., 0., 0., 1.82638086e+03,
          3.60624451e+02, 0., 0., 1.13855234e+04, 3.42118408e+03,
          8.46992676e+03, 3.22552319e+03, 8.06380798e+02, 3.30414136e+03,
          1.14039465e+03, 8.06380798e+02, 1.25710469e+04, 6.84236816e+03,
          1.12964004e+04, 4.03190405e+03, 0., 0., 0., 0., 1.62719043e+04,
          4.56157861e+03, 8.77202930e+03, 2.41914233e+03, 0.,
          3.60624451e+02, 1.14039465e+03, 8.06380798e+02, 8.53914258e+03,
          3.42118408e+03, 4.02539038e+03, 8.06380798e+02, 1.44455234e+04,
          1.09942979e+04, 7.98276270e+03, 7.25742725e+03, 12240., 0.,
          1.31580449e+04, 2.41914233e+03, 1.54655234e+04, 2.58384219e+04,
          3.42118408e+03, 2.41914233e+03, 2.15855234e+04, 3.42118408e+03,
          8.10930176e+03, 2.41914233e+03 ]
      - [ 3.86638086e+03, 2.16374683e+03, 2.28078931e+03, 2.41914233e+03,
          1530., 0., 3.60624451e+02, 0., 1.82638086e+03, 4.74663916e+03,
          1.14039465e+03, 0., 1530., 0., 7.21248901e+02, 1.61276160e+03,
          9.26276172e+03, 1.08187329e+03, 0., 0., 4.67276172e+03,
          3.42118408e+03, 6.54976172e+03, 8.06380798e+02, 1020.,
          7.21248901e+02, 0., 8.06380798e+02, 1.15163809e+04, 0.,
          2.16374683e+03, 8.06380798e+02, 2040., 0., 1.14039465e+03,
          8.06380798e+02, 1.46591426e+04, 3.42118408e+03, 7.02742871e+03,
          2.41914233e+03, 2.84638086e+03, 1.50101904e+03, 0., 0.,
          1.07927617e+04, 1.14039465e+03, 6.30617969e+03, 2.41914233e+03,
          1.52519043e+04, 1.69398535e+04, 6.84236816e+03, 3.22552319e+03,
          8.32552344e+03, 3.42118408e+03, 1.12378799e+04, 1.61276160e+03,
          1.42319043e+04, 2.48150703e+04, 4.56157861e+03, 3.22552319e+03,
          1.24882852e+04, 4.56157861e+03, 8.77202930e+03, 2.41914233e+03 ]
      - [ 8.06380798e+02, 1.19591289e+04, 1.14039465e+03, 8.06380798e+02,
          4080., 0., 0., 0., 0., 4.68811816e+03, 1.14039465e+03,
          8.06380798e+02, 0., 0., 0., 0., 3.14276172e+03, 5.52640967e+03,
          0., 8.06380798e+02, 1.07927617e+04, 1.14039465e+03,
          7.74867773e+03, 3.22552319e+03, 1.61276160e+03, 5.82851270e+03,
          0., 8.06380798e+02, 9.51104688e+03, 7.98276270e+03,
          1.35186689e+04, 3.22552319e+03, 0., 0., 0., 0., 1.26191426e+04,
          3.42118408e+03, 8.41140527e+03, 1.61276160e+03, 0., 0., 0., 0.,
          8.96638086e+03, 1.14039465e+03, 4.68811816e+03, 0.,
          1.09582852e+04, 1.50782090e+04, 5.70197314e+03, 4.83828467e+03,
          9.77276172e+03, 2.28078931e+03, 1.10528193e+04, 3.22552319e+03,
          1.91182852e+04, 2.30119473e+04, 3.42118408e+03, 3.22552319e+03,
          1.66991426e+04, 3.42118408e+03, 8.52844727e+03, 3.22552319e+03 ]
      - [ 1530., 0., 0., 0., 0., 0., 0., 0., 0., 0., 0., 0.,
          1.82638086e+03, 1.14039465e+03, 7.21248901e+02, 0.,
          5.18276172e+03, 6.91038574e+03, 5.70197314e+03, 4.83828467e+03,
          25500., 0., 0., 0., 1020., 2.16374658e+03, 7.98276270e+03,
          4.83828467e+03, 1.46591426e+04, 3.42118408e+03, 9.07413281e+03,
          8.06380798e+02, 510., 0., 0., 0., 0., 0., 0., 0., 0., 0., 0.,
          0., 1.86429512e+04, 1.48251309e+04, 7.21248926e+03, 0.,
          8.11190381e+03, 1.06921943e+04, 5.70197314e+03, 4.83828467e+03,
          1.94974277e+04, 9.12315723e+03, 1.02145273e+04, 2.41914233e+03,
          2.28191426e+04, 1.85674121e+04, 3.42118408e+03, 2.41914233e+03,
          2.07310469e+04, 6.84236816e+03, 9.55179980e+03, 4.03190405e+03 ]
      - [ 8.06380798e+02, 3.30414136e+03, 1.14039465e+03, 8.06380798e+02,
          12240., 0., 0., 0., 0., 0., 0., 8.06380798e+02, 5610., 0.,
          1.14039465e+03, 8.06380798e+02, 1.61276160e+03, 4.38601465e+03,
          0., 8.06380798e+02, 1.46591426e+04, 3.42118408e+03,
          1.08187329e+03, 0., 0., 3.60624451e+02, 1.14039465e+03, 0.,
          1.96282852e+04, 5.70197314e+03, 7.99225928e+03, 1.61276160e+03,
          0., 0., 0., 0., 6.07190381e+03, 5.70197314e+03, 3.24562012e+03,
          0., 0., 0., 0., 0., 1.82638086e+03, 0., 3.60624451e+02, 0.,
          9.77276172e+03, 1.02145273e+04, 4.56157861e+03, 3.22552319e+03,
          1.18127617e+04, 2.28078931e+03, 1.84993926e+04, 6.45104639e+03,
          1.54655234e+04, 1.75440586e+04, 4.56157861e+03, 3.22552319e+03,
          1.44455234e+04, 5.70197314e+03, 1.89865566e+04, 3.22552319e+03 ]
      - [ 8.06380798e+02, 3.30414136e+03, 3.42118408e+03, 1.61276160e+03,
          5.39638086e+03, 0., 3.60624451e+02, 0., 1.82638086e+03,
          4.38601465e+03, 3.42118408e+03, 8.06380798e+02, 3570., 0.,
          3.00203809e+03, 1.61276160e+03, 9.26276172e+03, 1.08187329e+03,
          0., 0., 9.55914258e+03, 2.28078931e+03, 5.16578516e+03,
          2.41914233e+03, 1020., 0., 0., 0., 1.30463809e+04,
          1.14039465e+03, 3.66476587e+03, 8.06380798e+02, 4080.,
          3.60624451e+02, 0., 8.06380798e+02, 1.15991426e+04,
          3.42118408e+03, 9.55179980e+03, 2.41914233e+03, 4080., 0., 0.,
          0., 4.67276172e+03, 3.42118408e+03, 9.07413281e+03,
          8.06380798e+02, 1.88219043e+04, 1.36942324e+04, 7.98276270e+03,
          4.03190405e+03, 1.13855234e+04, 3.42118408e+03, 1.09942979e+04,
          3.22552319e+03, 1.55482852e+04, 2.81192109e+04, 4.56157861e+03,
          3.22552319e+03, 1.10891426e+04, 3.42118408e+03, 1.38207725e+04,
          1.61276160e+03 ]
      - [ 3.86638086e+03, 2.94351709e+03, 1.14039465e+03, 8.06380798e+02,
          4.88638086e+03, 0., 3.60624451e+02, 0., 1.82638086e+03,
          3.30414136e+03, 3.42118408e+03, 1.61276160e+03, 1020., 0.,
          7.21248901e+02, 1.61276160e+03, 7.73276172e+03, 7.21248901e+02,
          0., 0., 4.67276172e+03, 2.28078931e+03, 7.69015625e+03,
          2.41914233e+03, 0., 3.60624451e+02, 0., 8.06380798e+02,
          8.96638086e+03, 1.14039465e+03, 3.30414136e+03, 8.06380798e+02,
          4080., 3.60624451e+02, 0., 8.06380798e+02, 1.21919043e+04,
          4.56157861e+03, 5.52640918e+03, 2.41914233e+03, 4080., 0., 0.,
          0., 5.69276172e+03, 3.42118408e+03, 6.18913721e+03,
          8.06380798e+02, 1.39355234e+04, 1.75440586e+04, 6.84236816e+03,
          4.83828467e+03, 9.34552344e+03, 2.28078931e+03, 1.28559414e+04,
          4.83828467e+03, 1.10410469e+04, 2.36066562e+04, 5.70197314e+03,
          4.83828467e+03, 1.32119043e+04, 3.42118408e+03, 1.38792930e+04,
          3.22552319e+03 ]
      - [ 1.82638086e+03, 9.85390332e+03, 2.28078931e+03, 1.61276160e+03,
          2040., 0., 0., 0., 0., 5.04874268e+03, 1.14039465e+03,
          2.41914233e+03, 4.88638086e+03, 0., 3.60624451e+02,
          8.06380798e+02, 2550., 4.68811816e+03, 1.14039465e+03,
          8.06380798e+02, 8.62190430e+03, 5.70197314e+03, 1.80312231e+03,
          0., 0., 0., 0., 0., 1.53827617e+04, 1.14039465e+03,
          5.04874268e+03, 0., 2040., 3.60624451e+02, 1.14039465e+03,
          8.06380798e+02, 1.05791426e+04, 3.42118408e+03, 7.02742871e+03,
          2.41914233e+03, 6120., 0., 0., 0., 6.92638086e+03,
          1.14039465e+03, 4.80516064e+03, 1.61276160e+03, 1.47419043e+04,
          1.76611016e+04, 5.70197314e+03, 3.22552319e+03, 4590., 0.,
          1.46590635e+04, 3.22552319e+03, 1.75882852e+04, 2.60139863e+04,
          3.42118408e+03, 1.61276160e+03, 9.85552344e+03, 5.70197314e+03,
          9.97094531e+03, 3.22552319e+03 ]
      - [ 4.45914258e+03, 5.16578516e+03, 2.28078931e+03, 2.41914233e+03,
          4080., 0., 0., 0., 0., 7.21248901e+02, 2.28078931e+03,
          1.61276160e+03, 6.92638086e+03, 0., 1.44249780e+03,
          8.06380798e+02, 7.51914258e+03, 7.21248901e+02, 0.,
          8.06380798e+02, 7.00914258e+03, 3.42118408e+03, 1.08187329e+03,
          0., 0., 0., 0., 0., 6.49914258e+03, 3.42118408e+03,
          4.38601465e+03, 1.61276160e+03, 0., 0., 0., 0., 1.46591426e+04,
          3.42118408e+03, 1.27974199e+04, 2.41914233e+03, 2040., 0., 0.,
          0., 8.96638086e+03, 1.14039465e+03, 6.18913721e+03,
          8.06380798e+02, 1.25710469e+04, 1.62771250e+04, 5.70197314e+03,
          5.64466553e+03, 1.18127617e+04, 2.28078931e+03, 8.10930176e+03,
          2.41914233e+03, 2.27710469e+04, 2.39087598e+04, 5.70197314e+03,
          4.03190405e+03, 1.75055234e+04, 3.42118408e+03, 1.09942979e+04,
          2.41914233e+03 ]
      - [ 2.84638086e+03, 3.30414136e+03, 1.14039465e+03, 8.06380798e+02,
          7.73276172e+03, 2.28078931e+03, 7.21248901e+02, 0., 0., 0., 0.,
          0., 1.10063809e+04, 1.14039465e+03, 3.30414136e+03,
          8.06380798e+02, 5.69276172e+03, 2.88499561e+03, 0.,
          1.61276160e+03, 20400., 0., 0., 0., 0., 0., 0., 0.,
          1.79327617e+04, 2.28078931e+03, 6.60828271e+03, 1.61276160e+03,
          0., 0., 0., 0., 2.07791426e+04, 3.42118408e+03, 1.12964004e+04,
          1.61276160e+03, 0., 0., 0., 0., 1.46591426e+04, 3.42118408e+03,
          2.52437109e+03, 0., 1.34255234e+04, 1.39378145e+04,
          6.84236816e+03, 4.83828467e+03, 2.20127617e+04, 0.,
          1.02730488e+04, 4.03190405e+03, 1.99246660e+04, 2.45714883e+04,
          3.42118408e+03, 2.41914233e+03, 3.30191406e+04, 3.42118408e+03,
          5.52640918e+03, 1.61276160e+03 ]
      - [ 510., 3.60624451e+02, 0., 0., 0., 0., 0., 0., 0., 0., 0., 0.,
          0., 0., 3.60624451e+02, 0., 1020., 7.21248901e+02,
          1.14039465e+03, 8.06380798e+02, 0., 0., 0., 0., 0., 0., 0., 0.,
          1.82638086e+03, 0., 7.21248901e+02, 0., 9.04914258e+03,
          5.88703418e+03, 1.14039465e+03, 3.22552319e+03, 5.18276172e+03,
          0., 2.94351709e+03, 2.41914233e+03, 1.66163809e+04, 0., 0., 0.,
          0., 0., 3.78180835e+03, 2.41914233e+03, 4.52591406e+04,
          5.58493066e+03, 0., 0., 0., 0., 4.38601465e+03, 8.06380798e+02,
          4.61963789e+04, 1.08187329e+03, 2.28078931e+03, 3.22552319e+03,
          1.50863809e+04, 0., 0., 0. ]
      - [ 1020., 7.21248901e+02, 2.28078931e+03, 1.61276160e+03, 4080.,
          0., 0., 0., 0., 0., 0., 0., 6.49914258e+03, 1.14039465e+03,
          1.08187329e+03, 0., 1.82638086e+03, 1.80312231e+03, 0.,
          8.06380798e+02, 3060., 0., 0., 0., 0., 0., 0., 0.,
          4.88638086e+03, 0., 7.21248901e+02, 0., 2040., 1.44249780e+03,
          4.56157861e+03, 3.22552319e+03, 6.92638086e+03, 0.,
          1.44249780e+03, 8.06380798e+02, 12240., 0., 0., 0., 0., 0.,
          2.94351709e+03, 8.06380798e+02, 4.64927617e+04, 2.64141382e+03,
          0., 0., 3.86638086e+03, 1.14039465e+03, 3.30414136e+03,
          8.06380798e+02, 4.54727617e+04, 3.72328711e+03, 0.,
          1.61276160e+03, 1.91663809e+04, 0., 0., 0. ]
      - [ 8.06380798e+02, 2.88499561e+03, 4.56157861e+03, 4.03190405e+03,
          6120., 0., 0., 0., 0., 3.60624451e+02, 0., 0., 0., 0., 0., 0.,
          2040., 0., 0., 0., 0., 0., 0., 0., 0., 7.21248901e+02,
          3.42118408e+03, 2.41914233e+03, 8.96638086e+03, 0.,
          1.44249780e+03, 8.06380798e+02, 0., 1.44249780e+03,
          4.56157861e+03, 3.22552319e+03, 6.92638086e+03, 1.14039465e+03,
          3.30414136e+03, 8.06380798e+02, 6120., 0., 0., 8.06380798e+02,
          2.84638086e+03, 0., 3.60624451e+02, 0., 3.91391406e+04,
          4.50305713e+03, 0., 0., 0., 0., 0., 0., 4.72991406e+04,
          4.80516064e+03, 1.14039465e+03, 8.06380798e+02, 6.92638086e+03,
          1.14039465e+03, 5.88703418e+03, 2.41914233e+03 ]
      - [ 8.06380798e+02, 2.88499561e+03, 4.56157861e+03, 4.03190405e+03,
          4080., 0., 0., 0., 0., 0., 0., 0., 0., 0., 0., 0., 2040., 0.,
          0., 0., 0., 0., 0., 0., 0., 7.21248901e+02, 2.28078931e+03,
          1.61276160e+03, 8.96638086e+03, 0., 1.44249780e+03,
          8.06380798e+02, 0., 1.44249780e+03, 4.56157861e+03,
          3.22552319e+03, 1.30463809e+04, 1.14039465e+03, 3.30414136e+03,
          8.06380798e+02, 6120., 3.60624451e+02, 0., 8.06380798e+02,
          1.82638086e+03, 0., 3.60624451e+02, 0., 51000., 0., 0., 0., 0.,
          0., 0., 0., 5.32055234e+04, 3.72328711e+03, 2.28078931e+03,
          1.61276160e+03, 1.13027617e+04, 1.14039465e+03, 2.88499561e+03,
          1.61276160e+03 ]
      - [ 0., 7.21248901e+02, 1.14039465e+03, 8.06380798e+02, 0., 0., 0.,
          0., 0., 0., 0., 0., 0., 0., 0., 0., 2.84638086e+03,
          4.38601465e+03, 5.70197314e+03, 4.03190405e+03, 2040., 0., 0.,
          0., 0., 1.80312231e+03, 5.70197314e+03, 4.03190405e+03,
          4.88638086e+03, 0., 1.44249780e+03, 8.06380798e+02, 0.,
          9.37623633e+03, 3.42118408e+03, 2.41914233e+03, 2.84638086e+03,
          0., 1.44249780e+03, 8.06380798e+02, 8160., 0., 0., 0., 0., 0.,
          0., 0., 41820., 3.60624451e+02, 0., 0., 0., 0., 0., 0.,
          4.97663789e+04, 2.16374683e+03, 2.28078931e+03, 2.41914233e+03,
          8.24276172e+03, 0., 1.80312231e+03, 2.41914233e+03 ]
      - [ 0., 1.44249780e+03, 5.70197314e+03, 4.03190405e+03, 4590., 0.,
          0., 0., 0., 0., 0., 0., 0., 0., 0., 0., 2.86427617e+04,
          5.58493066e+03, 2.28078931e+03, 8.06380798e+02, 9180., 0., 0.,
          0., 0., 3.60624451e+02, 2.28078931e+03, 8.06380798e+02,
          2.43491426e+04, 1.14039465e+03, 2.52437109e+03, 0., 0.,
          3.96686914e+03, 3.42118408e+03, 2.41914233e+03, 8.96638086e+03,
          0., 1.44249780e+03, 8.06380798e+02, 8160., 0., 0., 0., 0., 0.,
          0., 0., 8.96638086e+03, 3.60624451e+02, 0., 0., 1.18127617e+04,
          0., 2.52437134e+03, 1.61276160e+03, 4.32191406e+04,
          5.16578516e+03, 2.28078931e+03, 2.41914233e+03, 2.07791426e+04,
          3.42118408e+03, 1.08187329e+03, 8.06380798e+02 ]
      - [ 2040., 2.52437109e+03, 3.42118408e+03, 2.41914233e+03, 2040.,
          0., 0., 0., 0., 7.21248901e+02, 2.28078931e+03, 1.61276160e+03,
          2.84638086e+03, 0., 2.94351709e+03, 1.61276160e+03, 0., 0., 0.,
          0., 0., 0., 0., 0., 0., 0., 0., 0., 0., 0., 0., 0., 2040.,
          7.21248901e+02, 2.28078931e+03, 1.61276160e+03, 6.49914258e+03,
          2.28078931e+03, 3.66476587e+03, 1.61276160e+03, 8160.,
          3.60624451e+02, 1.14039465e+03, 8.06380798e+02, 2040., 0.,
          2.94351709e+03, 8.06380798e+02, 44880., 0., 0., 0., 0., 0.,
          4.50305713e+03, 2.41914233e+03, 4.36463789e+04, 1.44249780e+03,
          0., 8.06380798e+02, 6.92638086e+03, 0., 4.44453613e+03,
          2.41914233e+03 ]
      - [ 2.84638086e+03, 4.74663916e+03, 5.70197314e+03, 4.03190405e+03,
          4080., 0., 0., 0., 0., 7.21248901e+02, 2.28078931e+03,
          1.61276160e+03, 1020., 0., 1.50101904e+03, 8.06380798e+02, 0.,
          0., 0., 0., 0., 0., 0., 0., 0., 7.21248901e+02, 2.28078931e+03,
          1.61276160e+03, 3.86638086e+03, 1.14039465e+03, 1.80312231e+03,
          0., 1.38527617e+04, 6.91038574e+03, 2.28078931e+03,
          2.41914233e+03, 1.30463809e+04, 1.14039465e+03, 4.02539038e+03,
          1.61276160e+03, 1.51691426e+04, 1.80312231e+03, 0.,
          8.06380798e+02, 8.53914258e+03, 0., 6.96890723e+03,
          2.41914233e+03, 5.58863789e+04, 1.44249780e+03, 0.,
          8.06380798e+02, 6120., 0., 0., 0., 4.97663789e+04,
          2.94351709e+03, 0., 0., 1.13855234e+04, 2.28078931e+03,
          9.61032129e+03, 4.83828467e+03 ]
      - [ 0., 1.80312231e+03, 5.70197314e+03, 4.03190405e+03, 2040., 0.,
          0., 0., 0., 0., 0., 0., 0., 0., 0., 0., 44880., 1.44249780e+03,
          2.28078931e+03, 8.06380798e+02, 3570., 0., 0., 0., 0., 0., 0.,
          0., 1.41491426e+04, 1.14039465e+03, 5.76999121e+03,
          1.61276160e+03, 0., 3.60624451e+02, 1.14039465e+03,
          8.06380798e+02, 8.96638086e+03, 0., 1.44249780e+03,
          8.06380798e+02, 4080., 0., 0., 0., 0., 0., 0., 0., 0., 0., 0.,
          0., 0., 0., 0., 0., 5.58863789e+04, 1.44249780e+03, 0.,
          8.06380798e+02, 10200., 0., 0., 0. ]
      - [ 1.26191426e+04, 4.44453613e+03, 0., 8.06380798e+02, 10200., 0.,
          0., 0., 4.88638086e+03, 3.30414136e+03, 1.14039465e+03,
          8.06380798e+02, 0., 0., 0., 0., 16320., 1.80312231e+03,
          1.14039465e+03, 8.06380798e+02, 1.30463809e+04, 1.14039465e+03,
          3.30414136e+03, 8.06380798e+02, 8160., 0., 0., 0.,
          1.95455234e+04, 4.56157861e+03, 8.71350879e+03, 8.06380798e+02,
          0., 0., 0., 0., 2.48591426e+04, 2.28078931e+03, 2.16374683e+03,
          8.06380798e+02, 2.84638086e+03, 1.44249780e+03, 0.,
          8.06380798e+02, 26520., 0., 0., 0., 1.26191426e+04,
          7.02742871e+03, 3.42118408e+03, 2.41914233e+03, 2.85119043e+04,
          4.56157861e+03, 1.16570254e+04, 2.41914233e+03, 1.66991426e+04,
          1.45420215e+04, 4.56157861e+03, 4.03190405e+03, 2.68991426e+04,
          2.28078931e+03, 5.16578516e+03, 2.41914233e+03 ]
      - [ 8.11190381e+03, 8.94759375e+03, 0., 0., 0., 0., 0., 0., 0., 0.,
          0., 0., 0., 0., 0., 0., 8.75276172e+03, 5.94555518e+03,
          1.14039465e+03, 8.06380798e+02, 8.32552344e+03, 4.56157861e+03,
          4.32749365e+03, 0., 0., 0., 0., 0., 1.64855234e+04,
          4.56157861e+03, 9.85390332e+03, 8.06380798e+02, 0.,
          3.60624451e+02, 1.14039465e+03, 8.06380798e+02, 2.28191426e+04,
          2.28078931e+03, 2.16374683e+03, 8.06380798e+02, 6.49914258e+03,
          6.24765820e+03, 1.14039465e+03, 1.61276160e+03, 16320., 0., 0.,
          0., 1.26191426e+04, 9.91242383e+03, 3.42118408e+03,
          2.41914233e+03, 1.50382852e+04, 5.70197314e+03, 1.49611670e+04,
          3.22552319e+03, 1.75055234e+04, 2.00684297e+04, 3.42118408e+03,
          2.41914233e+03, 2.12063809e+04, 1.14039465e+03, 9.07413281e+03,
          8.06380798e+02 ]
      - [ 1.26191426e+04, 4.44453613e+03, 0., 8.06380798e+02,
          1.04963809e+04, 1.14039465e+03, 1.08187329e+03, 8.06380798e+02,
          8.24276172e+03, 1.80312231e+03, 0., 8.06380798e+02, 5100., 0.,
          0., 0., 1.50863809e+04, 1.44249780e+03, 0., 8.06380798e+02,
          1.86563809e+04, 0., 2.16374683e+03, 1.61276160e+03,
          9.47638086e+03, 1.08187329e+03, 0., 0., 2.40527617e+04,
          1.14039465e+03, 7.74867773e+03, 3.22552319e+03, 0., 0., 0., 0.,
          2.20127617e+04, 1.14039465e+03, 4.68811816e+03, 8.06380798e+02,
          8.06380798e+02, 1.44249780e+03, 0., 8.06380798e+02, 24480., 0.,
          0., 0., 1.26191426e+04, 5.16578516e+03, 2.28078931e+03,
          2.41914233e+03, 3.01246660e+04, 4.56157861e+03, 8.77202930e+03,
          4.03190405e+03, 1.87391426e+04, 8.77202930e+03, 4.56157861e+03,
          4.03190405e+03, 2.89391426e+04, 2.28078931e+03, 5.16578516e+03,
          2.41914233e+03 ]
      - [ 1.81463809e+04, 1.08187341e+03, 0., 0., 4080., 0., 0., 0.,
          3.86638086e+03, 3.60624451e+02, 0., 0., 0., 0., 0., 0.,
          1.91663809e+04, 1.44249780e+03, 0., 8.06380798e+02, 8160., 0.,
          2.94351709e+03, 8.06380798e+02, 8.06380798e+02, 2.64141382e+03,
          0., 0., 1.58927617e+04, 1.14039465e+03, 4.74663916e+03,
          1.61276160e+03, 0., 0., 0., 0., 12240., 0., 1.08187341e+03,
          8.06380798e+02, 1.10063809e+04, 2.52437134e+03, 0.,
          1.61276160e+03, 22440., 0., 0., 0., 1.46591426e+04,
          5.04874268e+03, 2.28078931e+03, 4.03190405e+03, 2.56655234e+04,
          4.56157861e+03, 1.03900908e+04, 4.03190405e+03, 1.95455234e+04,
          1.31580449e+04, 3.42118408e+03, 2.41914233e+03, 2.68991426e+04,
          2.28078931e+03, 5.04874268e+03, 8.06380798e+02 ]
      - [ 6.49914258e+03, 4.44453613e+03, 0., 8.06380798e+02, 6120., 0.,
          0., 0., 8.06380798e+02, 1.44249780e+03, 0., 8.06380798e+02,
          2040., 0., 0., 0., 1.38527617e+04, 3.00203809e+03, 0., 0.,
          1.66991426e+04, 2.28078931e+03, 1.08187344e+04, 8.06380798e+02,
          5.69276172e+03, 3.00203809e+03, 0., 0., 2.52382852e+04,
          5.70197314e+03, 3.24562012e+03, 8.06380798e+02, 0., 0., 0., 0.,
          2.12063809e+04, 0., 1.44249780e+03, 8.06380798e+02,
          2.84638086e+03, 3.30414136e+03, 1.14039465e+03, 8.06380798e+02,
          18360., 0., 0., 0., 1.10063809e+04, 1.12378799e+04,
          1.14039465e+03, 0., 2.24746660e+04, 7.98276270e+03,
          1.14719648e+04, 4.03190405e+03, 1.05791426e+04, 1.56824160e+04,
          5.70197314e+03, 3.22552319e+03, 1.72091426e+04, 3.42118408e+03,
          9.79538184e+03, 8.06380798e+02 ]
      - [ 8.96638086e+03, 1.44249780e+03, 0., 8.06380798e+02, 2040., 0.,
          0., 0., 8.06380798e+02, 2.64141382e+03, 0., 0., 0., 0.,
          3.60624451e+02, 8.06380798e+02, 9.77276172e+03, 4.08391162e+03,
          0., 8.06380798e+02, 4.67276172e+03, 1.14039465e+03,
          9.73686035e+03, 0., 2040., 0., 0., 8.06380798e+02,
          1.03655234e+04, 3.42118408e+03, 5.46788818e+03, 1.61276160e+03,
          0., 0., 0., 0., 1.89527617e+04, 0., 3.60624451e+02,
          8.06380798e+02, 2.92914233e+03, 4.38601465e+03, 0.,
          1.61276160e+03, 14280., 0., 0., 0., 1.05791426e+04,
          9.91242383e+03, 1.14039465e+03, 0., 1.83119043e+04,
          5.70197314e+03, 1.21346924e+04, 4.03190405e+03, 1.42319043e+04,
          1.18325889e+04, 2.28078931e+03, 2.41914233e+03, 1.67819043e+04,
          5.70197314e+03, 8.10930176e+03, 2.41914233e+03 ]
      - [ 4.67276172e+03, 2.88499561e+03, 0., 8.06380798e+02, 2040., 0.,
          1.14039465e+03, 8.06380798e+02, 2550., 0., 0., 8.06380798e+02,
          0., 0., 1.44249780e+03, 8.06380798e+02, 1.55963809e+04,
          1.44249780e+03, 0., 0., 1.82638086e+03, 0., 2.16374683e+03,
          8.06380798e+02, 1.38527617e+04, 1.80312231e+03, 0.,
          8.06380798e+02, 3.86638086e+03, 0., 2.52437109e+03,
          2.41914233e+03, 0., 0., 0., 8.06380798e+02, 1.38527617e+04, 0.,
          7.21248901e+02, 0., 2.63276172e+03, 2.88499561e+03, 0.,
          1.61276160e+03, 9.98638086e+03, 0., 1.08187341e+03,
          8.06380798e+02, 2.12276172e+03, 6.85186475e+03, 2.28078931e+03,
          3.22552319e+03, 1.48246660e+04, 1.14039465e+03, 7.93373828e+03,
          4.03190405e+03, 4.75552344e+03, 6.49124023e+03, 1.14039465e+03,
          3.22552319e+03, 1.57619043e+04, 0., 9.73686035e+03,
          2.41914233e+03 ]
      - [ 6.49914258e+03, 4.44453613e+03, 0., 8.06380798e+02, 8160., 0.,
          0., 0., 0., 3.60624451e+02, 0., 8.06380798e+02, 1020., 0., 0.,
          0., 1.16819043e+04, 7.14447119e+03, 0., 0., 2.08619043e+04,
          4.56157861e+03, 2.52437109e+03, 8.06380798e+02, 4.88638086e+03,
          4.38601465e+03, 5.70197314e+03, 3.22552319e+03, 2.26882852e+04,
          6.84236816e+03, 2.88499561e+03, 0., 0., 0., 0., 0.,
          2.73263809e+04, 0., 1.44249780e+03, 8.06380798e+02, 8160., 0.,
          0., 0., 1.20263809e+04, 0., 3.60624451e+02, 0., 1.05791426e+04,
          5.88703369e+03, 4.56157861e+03, 4.03190405e+03, 2.28191426e+04,
          3.42118408e+03, 1.56824160e+04, 2.41914233e+03, 1.13855234e+04,
          1.71249141e+04, 3.42118408e+03, 3.22552319e+03, 3.68855234e+04,
          5.70197314e+03, 7.38805273e+03, 2.41914233e+03 ]
      - [ 8.96638086e+03, 1.44249780e+03, 0., 8.06380798e+02, 0., 0., 0.,
          0., 0., 0., 0., 0., 0., 0., 3.60624451e+02, 8.06380798e+02,
          1.07927617e+04, 4.08391162e+03, 0., 8.06380798e+02,
          3.86638086e+03, 1.14039465e+03, 6.13061572e+03, 0., 0., 0., 0.,
          0., 7.30552344e+03, 3.42118408e+03, 5.46788818e+03,
          1.61276160e+03, 0., 0., 0., 0., 1.91663809e+04, 0.,
          1.44249780e+03, 8.06380798e+02, 4.88638086e+03, 4.38601465e+03,
          1.14039465e+03, 1.61276160e+03, 14280., 0., 0., 0.,
          1.64027617e+04, 5.22430615e+03, 3.42118408e+03, 8.06380798e+02,
          1.45282852e+04, 7.98276270e+03, 1.64621855e+04, 2.41914233e+03,
          1.97591426e+04, 1.31580449e+04, 1.14039465e+03, 1.61276160e+03,
          1.85255234e+04, 3.42118408e+03, 1.01560059e+04, 8.06380798e+02 ]
      - [ 4.67276172e+03, 4.08391162e+03, 0., 8.06380798e+02, 2040., 0.,
          0., 8.06380798e+02, 1020., 1.08187341e+03, 0., 8.06380798e+02,
          0., 0., 0., 8.06380798e+02, 16320., 1.80312231e+03,
          1.14039465e+03, 8.06380798e+02, 3.22552319e+03, 3.42118408e+03,
          6.54976172e+03, 2.41914233e+03, 6120., 0., 0., 8.06380798e+02,
          1.03655234e+04, 3.42118408e+03, 5.46788818e+03, 2.41914233e+03,
          0., 3.60624451e+02, 1.14039465e+03, 8.06380798e+02,
          1.55963809e+04, 0., 3.60624451e+02, 1.61276160e+03,
          1.82638086e+03, 3.30414136e+03, 1.14039465e+03, 8.06380798e+02,
          14280., 0., 0., 0., 8.11190381e+03, 1.03900908e+04,
          1.14039465e+03, 8.06380798e+02, 1.91182852e+04, 5.70197314e+03,
          1.38792930e+04, 2.41914233e+03, 1.42319043e+04, 1.21932139e+04,
          4.56157861e+03, 3.22552319e+03, 1.39355234e+04, 4.56157861e+03,
          1.31580449e+04, 2.41914233e+03 ]
      - [ 6.07190381e+03, 8.83055078e+03, 1.14039465e+03, 2.41914233e+03,
          2040., 0., 0., 0., 4.45914258e+03, 4.08391162e+03, 0.,
          8.06380798e+02, 0., 0., 0., 0., 1.64027617e+04, 7.21248901e+02,
          0., 1.61276160e+03, 4.88638086e+03, 0., 4.80516064e+03,
          3.22552319e+03, 9.34552344e+03, 4.44453613e+03, 0., 0.,
          6.49914258e+03, 1.14039465e+03, 1.14134434e+04, 4.83828467e+03,
          2040., 7.21248901e+02, 2.28078931e+03, 1.61276160e+03,
          1.35082852e+04, 4.56157861e+03, 5.40936719e+03, 2.41914233e+03,
          6120., 7.21248901e+02, 2.28078931e+03, 1.61276160e+03,
          1.02827617e+04, 2.28078931e+03, 4.80516064e+03, 2.41914233e+03,
          3.23782852e+04, 8.77202930e+03, 2.28078931e+03, 4.03190405e+03,
          27030., 0., 1.50101904e+03, 8.06380798e+02, 4.15582852e+04,
          1.20761709e+04, 3.42118408e+03, 4.03190405e+03, 3.03863809e+04,
          0., 3.60624451e+02, 1.61276160e+03 ]
      - [ 6.07190381e+03, 8.05078076e+03, 2.28078931e+03, 4.03190405e+03,
          2040., 0., 0., 0., 2.41914233e+03, 4.44453613e+03, 0.,
          8.06380798e+02, 0., 0., 0., 0., 2.37563809e+04, 1.44249780e+03,
          0., 8.06380798e+02, 6.92638086e+03, 0., 4.08391162e+03,
          2.41914233e+03, 16320., 0., 0., 0., 1.47419043e+04, 0.,
          9.01561133e+03, 4.03190405e+03, 2040., 0., 0., 0.,
          1.87391426e+04, 2.28078931e+03, 7.69015625e+03, 2.41914233e+03,
          4080., 7.21248901e+02, 2.28078931e+03, 1.61276160e+03,
          1.05791426e+04, 2.28078931e+03, 3.30414136e+03, 1.61276160e+03,
          2.68510469e+04, 1.35186689e+04, 1.14039465e+03, 4.83828467e+03,
          2.60927617e+04, 0., 2.88499561e+03, 1.61276160e+03,
          3.90910469e+04, 1.42399180e+04, 3.42118408e+03, 6.45104639e+03,
          29580., 0., 2.22226807e+03, 2.41914233e+03 ]
      - [ 4.45914258e+03, 1.17155469e+04, 3.42118408e+03, 1.61276160e+03,
          510., 0., 0., 0., 6.92638086e+03, 5.10726367e+03,
          1.14039465e+03, 0., 510., 0., 0., 0., 1.07927617e+04,
          4.44453613e+03, 2.28078931e+03, 3.22552319e+03, 1020., 0.,
          8.83055078e+03, 2.41914233e+03, 12240., 7.21248901e+02, 0.,
          1.61276160e+03, 8.32552344e+03, 2.28078931e+03, 1.60430400e+04,
          2.41914233e+03, 0., 0., 0., 0., 1.02827617e+04, 3.42118408e+03,
          1.49611670e+04, 2.41914233e+03, 0., 0., 0., 0., 8670.,
          1.14039465e+03, 8.58696875e+03, 4.03190405e+03, 2.01382852e+04,
          2.42108633e+04, 4.56157861e+03, 8.06380798e+02, 4.96914258e+03,
          1.14039465e+03, 5.88703418e+03, 1.61276160e+03, 2.56174277e+04,
